{"learner":{"attributes":{"best_iteration":"99","best_score":"0.00272994063795447"},"feature_names":[],"feature_types":[],"gradient_booster":{"model":{"gbtree_model_param":{"num_parallel_tree":"1","num_trees":"101"},"iteration_indptr":[0,1,2,3,4,5,6,7,8,9,10,11,12,13,14,15,16,17,18,19,20,21,22,23,24,25,26,27,28,29,30,31,32,33,34,35,36,37,38,39,40,41,42,43,44,45,46,47,48,49,50,51,52,53,54,55,56,57,58,59,60,61,62,63,64,65,66,67,68,69,70,71,72,73,74,75,76,77,78,79,80,81,82,83,84,85,86,87,88,89,90,91,92,93,94,95,96,97,98,99,100,101],"tree_info":[0,0,0,0,0,0,0,0,0,0,0,0,0,0,0,0,0,0,0,0,0,0,0,0,0,0,0,0,0,0,0,0,0,0,0,0,0,0,0,0,0,0,0,0,0,0,0,0,0,0,0,0,0,0,0,0,0,0,0,0,0,0,0,0,0,0,0,0,0,0,0,0,0,0,0,0,0,0,0,0,0,0,0,0,0,0,0,0,0,0,0,0,0,0,0,0,0,0,0,0,0],"trees":[{"base_weights":[-2.7166352E-2,-9.6259964E-1,2.9295683E0,8.5419494E-1,-1.3287011E0,-1.3883041E-1,2.9399934E0,-9.3257064E-1,2.6276534E0,-1.3817494E0,1.1135058E0,2.9472659E0,-1.2615902E0,-1.3042346E0,2.844459E-1,-1.1030914E0,2.7726498E0,-9.929778E-1,-1.4631885E0,-1.4423009E0,2.4015012E0,1.4435288E-1,2.7536145E-1,-1.4427289E0,4.4972934E-2,-1.4946283E0,-9.9414736E-1,2.0664918E0,-1.2955927E0,-1.4841301E0,2.7710989E0,2.866904E0,-1.4107943E-1,-1.247929E0,1.2863946E0,-1.4889156E0,-7.8409475E-1,-1.4633482E0,9.697021E-2,2.6723502E0,-1.4068237E-1,-1.4006563E-1,-1.058591E-1,-1.5106481E0,-3.2760564E-2,-4.2291826E-1,-1.4222891E0,2.462453E0,-1.4080049E-1,-1.476757E0,2.5958688E0,-1.3971692E-1,-9.9927604E-2,1.9535093E-1,2.7093476E-1,2.8878322E0,-4.7585535E-1,-6.9736356E-1,-1.4236047E0,2.4739783E0,-1.497074E0,-7.410471E-1,-1.4952128E0,2.810751E0,-1.4768189E0,-1.4077087E-1,-1.0496941E0,-1.3501034E0,2.7489027E-1,-1.4125821E-1,-3.3925846E-2,-1.3872994E-1,1.227561E0,-1.2706183E0,8.4199053E-1,-1.4575534E0,1.7871512E0,-1.0248793E0,2.8780696E0,5.702959E-1,-1.4978502E0,2.6911414E-1,2.2639575E0,2.8984578E0,-1.3612591E0,2.6657656E-1,-1.376026E-1,9.8684883E-1,-1.3353549E0,-1.4439268E0,7.578388E-1,1.14068225E-1,2.879028E0,-1.0056697E0,-1.4092724E-1,-1.4522102E0,1.8317659E0,-1.4985429E0,-2.4663146E-1,-9.769344E-1,2.7512288E-1,-1.5041941E0,7.6991506E-2,-1.3752642E-1,1.489234E-1,7.0660315E-2,-1.4055571E-1,2.623678E-1,-1.3532643E-1,-1.4414091E0,1.8041055E0,1.6171432E0,-1.421192E0,-1.4881611E0,-3.2666218E-1,-6.431845E-2,2.6594877E-1,-1.4421794E0,1.7020553E0,2.7151442E-1,-1.3073823E-1,-1.2083703E-1,1.9535093E-1,-1.4030248E-1,-5.681028E-2,2.2343357E-1,1.5969509E-1,2.9035735E0,-1.174579E-1,-1.3787681E-1,-8.315797E-2,2.7557824E0,-7.138233E-1,-1.5107615E0,8.419849E-1,-1.2549044E0,-1.475824E0,2.7592006E0,-1.401036E-1,2.3163416E0,-1.2176213E0,2.93302E0,-1.363239E-1,-1.327848E-1,-3.605915E-2,-6.233872E-1,-1.4810219E0,-1.346173E0,2.6343207E0,-1.5035486E0,-1.2603761E0,2.7064466E-1,-1.2218537E0,-1.3072175E-1,-7.799853E-3,-7.657063E-1,-1.5099638E0,-1.3708423E-1,2.6074362E-1,-1.4077318E-1,-1.3674736E0,2.589064E0,-1.2028391E-1,1.8689902E0,-1.3910052E-1,-1.377231E-1,-2.9826924E-2,-1.0203896E0,-1.499505E0,2.2147919E-1,-1.3930392E-1,-1.4060602E-1,-7.861949E-2,2.4839881E-1,2.1013074E-2,2.907219E0,-1.3347594E-1,2.8732357E0,-1.2513752E-1,8.9924586E-1,-1.3905132E0,-1.412735E-1,-8.620953E-2,1.6368887E0,-1.4543319E0,-5.7596755E-1,-1.4969513E0,-1.4120764E-1,-1.4541206E0,1.0371223E-1,2.7301157E-1,-1.2137083E-1,2.8441217E0,-1.4538264E0,1.204725E-1,2.7482733E-1,1.2658468E-1,-1.3621753E-1,1.13132E-1,-1.4949836E0,-6.534392E-2,-1.3625853E-1,-7.373821E-2,2.7694263E0,4.316161E-2,-1.410894E0,-1.5106075E0,1.1288074E0,-1.4699036E0,-1.3843375E0,8.908813E-1,9.429247E-2,-1.3688025E-1,-1.4122504E-1,-6.431845E-2,-6.234411E-2,-1.3750803E-1,1.4386222E-1,2.6498345E-1,1.0066838E-1,-1.3050285E-1,1.4090583E0,2.6585194E-1,-7.29942E-1,-1.3382663E-1,-1.405993E-1,-1.1795855E0,2.9407585E0,2.6155257E0,2.8994393E0,5.7062592E-2,2.6291263E0,-1.3953017E-1,-1.4833893E0,2.2440994E-1,1.3437697E0,2.70956E-1,-9.3656555E-2,-1.3997848E-1,-1.4674909E0,2.3773484E0,-5.616533E-2,-1.5036201E0,-1.3109822E0,-1.4911741E0,2.7199575E-1,1.9400804E-1,-1.389723E-1,-7.373821E-2,-1.4089757E-1,-1.0929382E0,1.8430798E-1,2.8371537E0,-1.4887239E0,-4.329155E-1,-1.5111938E0,1.5258723E0,-1.2907131E0,2.690366E0,4.6627674E-2,-1.4789996E0,-1.4437524E0,-5.1023852E-2,2.553349E-1,-1.0199751E-1,-8.525926E-1,1.5817003E-1,2.4874465E0,9.4932485E-1,3.2276858E-2,-1.1673279E0,6.179327E-3,-1.3856208E-1,2.9452808E0,-1.1692578E-1,-1.2928778E0,2.8423948E0,2.922271E0,1.6912189E-1,2.8235912E0,2.130659E0,-1.4120354E-1,2.4602467E-2,4.6213284E-1,1.4747512E0,-6.457585E-2,-1.4826488E0,2.804092E0,-1.2506668E-1,-1.3061503E0,-1.4105201E-1,-1.3869334E0,2.5818035E-1,-1.4003775E-1,-1.4577919E0,-2.6639383E-2,-1.3580734E-1,2.7378416E-1,2.4403577E0,-1.4898661E0,-7.776251E-2,-1.4092204E-1,1.5574967E0,-1.511646E0,3.8570625E-1,-3.605915E-2,2.607251E-1,-1.3973732E-1,-5.5456346E-1,2.7294514E-1,-2.2589685E-2,-1.4825128E0,-5.156908E-2,-9.9160504E-1,-1.3994461E-1,-4.694835E-1,-1.3213845E-1,2.5608078E-1,1.9707571E0,-3.384799E-1,1.9339144E0,-7.429209E-2,-1.3447553E-1,2.752366E-1,1.4139129E-1,-1.4051865E0,-6.739241E-2,2.077749E0,2.8594782E0,2.7416056E-1,2.0676212E-1,1.6277602E-1,2.7228543E-1,1.6857978E0,2.2917157E-1,5.9371796E-2,2.6077418E-2,1.5980842E0,1.0530063E0,-1.3944878E-1,-1.1660919E0,2.0213524E-1,2.6782078E-1,-4.034219E-2,-1.3625376E-1,-1.1826049E0,-1.4108127E-1,1.7230878E0,-1.369584E-1,-1.4292371E0,-1.4118373E-1,2.5955886E-1,1.4595479E-1,-1.493977E0,-1.2908164E0,2.7240577E-1,-1.3987906E-1,-1.4123113E-1,-7.3100895E-2,-1.346643E-1,2.4566549E-1,-1.120797E-1,8.754006E-3,-1.3414241E0,-1.404637E-1,-7.799853E-3,-1.352509E-1,-1.7219618E-2,-6.602185E-2,2.479787E-1,1.4691058E-1,1.2792802E-2,-9.922202E-2,1.9475245E-1,4.9583048E-2,-1.3550559E-1,-9.257774E-2,-2.6639383E-2,2.6792404E-1,2.590105E-1,2.7511495E-1,1.8316014E-1,1.13132E-1,1.5831679E-1,1.23286895E-1,5.195428E-2,1.1563014E-1,-7.666396E-2,-1.3138705E-1,-2.105305E-2,-1.2764442E-1,-1.10401735E-1,2.3946543E-1,-1.3399462E-1,-7.373821E-2,-1.4128542E-1,-1.3592175E-1,-1.3671273E-1,8.3864875E-2,-1.3935085E-1,-3.2691084E-2],"categories":[],"categories_nodes":[],"categories_segments":[],"categories_sizes":[],"default_left":[0,0,0,0,0,0,0,0,0,0,0,0,0,0,0,0,0,0,0,0,0,0,0,0,0,0,0,0,0,0,0,0,0,0,0,0,0,0,0,0,0,0,0,0,0,0,0,0,0,0,0,0,0,0,0,0,0,0,0,0,0,0,0,0,0,0,0,0,0,0,0,0,0,0,0,0,0,0,0,0,0,0,0,0,0,0,0,0,0,0,0,0,0,0,0,0,0,0,0,0,0,0,0,0,0,0,0,0,0,0,0,0,0,0,0,0,0,0,0,0,0,0,0,0,0,0,0,0,0,0,0,0,0,0,0,0,0,0,0,0,0,0,0,0,0,0,0,0,0,0,0,0,0,0,0,0,0,0,0,0,0,0,0,0,0,0,0,0,0,0,0,0,0,0,0,0,0,0,0,0,0,0,0,0,0,0,0,0,0,0,0,0,0,0,0,0,0,0,0,0,0,0,0,0,0,0,0,0,0,0,0,0,0,0,0,0,0,0,0,0,0,0,0,0,0,0,0,0,0,0,0,0,0,0,0,0,0,0,0,0,0,0,0,0,0,0,0,0,0,0,0,0,0,0,0,0,0,0,0,0,0,0,0,0,0,0,0,0,0,0,0,0,0,0,0,0,0,0,0,0,0,0,0,0,0,0,0,0,0,0,0,0,0,0,0,0,0,0,0,0,0,0,0,0,0,0,0,0,0,0,0,0,0,0,0,0,0,0,0,0,0,0,0,0,0,0,0,0,0,0,0,0,0,0,0,0,0,0,0,0,0,0,0,0,0,0,0,0,0,0,0,0,0,0,0,0,0,0,0,0,0,0,0,0,0,0,0,0,0,0,0,0,0,0,0,0,0,0,0,0,0,0,0,0,0,0,0,0,0,0,0,0,0,0,0,0,0,0,0,0,0],"id":0,"left_children":[1,3,5,7,9,-1,11,13,15,17,19,21,23,25,27,29,31,33,35,37,39,-1,-1,41,-1,43,45,47,49,51,53,55,-1,57,59,61,63,65,-1,67,-1,-1,-1,69,71,73,75,77,-1,79,81,-1,-1,-1,-1,83,85,87,89,91,93,95,97,99,101,-1,103,105,-1,-1,-1,-1,107,109,111,113,115,117,119,121,123,-1,125,127,129,-1,-1,131,133,135,137,139,141,143,-1,145,147,149,151,153,-1,155,157,-1,-1,-1,-1,-1,-1,159,161,163,165,167,169,-1,-1,171,173,-1,-1,-1,-1,-1,-1,-1,-1,175,-1,-1,-1,177,179,181,183,185,187,189,-1,191,193,195,-1,-1,-1,197,199,201,203,205,207,-1,209,-1,-1,211,213,-1,-1,-1,215,217,219,221,-1,-1,-1,223,225,-1,-1,-1,-1,-1,-1,227,-1,229,-1,231,233,-1,-1,235,237,239,241,-1,243,-1,-1,-1,245,247,-1,-1,-1,-1,-1,249,-1,-1,-1,251,-1,253,255,257,259,261,263,-1,-1,-1,-1,265,-1,-1,-1,-1,-1,267,-1,269,-1,-1,271,273,275,277,-1,279,-1,281,-1,283,-1,-1,-1,285,287,-1,289,291,293,-1,-1,-1,-1,-1,295,-1,297,299,301,303,305,307,309,-1,311,313,-1,-1,-1,315,-1,317,319,-1,321,-1,-1,323,-1,325,327,329,-1,331,333,-1,-1,335,337,-1,339,341,-1,343,-1,345,347,-1,349,-1,-1,-1,351,353,-1,-1,355,357,359,-1,-1,-1,361,-1,-1,363,-1,365,-1,367,-1,-1,369,371,373,-1,-1,-1,-1,375,-1,377,379,-1,-1,-1,-1,381,-1,-1,-1,383,385,-1,387,-1,-1,-1,-1,389,-1,391,-1,393,-1,-1,-1,395,397,-1,-1,-1,-1,-1,-1,-1,-1,399,-1,-1,-1,-1,-1,-1,-1,-1,-1,-1,-1,-1,-1,-1,-1,-1,-1,-1,-1,-1,-1,-1,-1,-1,-1,-1,-1,-1,-1,-1,-1,-1,-1,-1,-1,-1,-1],"loss_changes":[7.438231E5,1.3588627E5,2.9786875E3,1.0857634E5,2.2030031E4,0E0,1.97325E3,7.7208066E3,9.304602E3,5.2678438E3,1.1903568E4,1.3125E1,3.5915085E1,7.7068164E2,1.1246913E4,9.533268E2,6.68525E3,1.6752781E4,2.4029062E3,6.440137E1,2.547335E3,0E0,0E0,3.2933044E-1,0E0,1.8952734E2,1.216519E3,2.6589644E3,1.4953264E3,1.3991699E0,2.6235962E-1,1.1342812E3,0E0,2.506746E3,9.589688E3,6.23375E2,1.2514092E4,2.0248291E1,0E0,2.4456436E3,0E0,0E0,0E0,1.20546875E1,1.6350009E2,2.288096E3,3.2376514E2,2.4520615E3,0E0,8.8069824E1,3.7631226E0,0E0,0E0,0E0,0E0,7.297344E2,3.3944632E2,6.741511E3,8.7215234E2,1.9429795E3,3.555542E0,2.0301387E3,5.4621875E2,4.1481348E2,1.7939746E2,0E0,1.3216998E2,4.7053253E1,0E0,0E0,0E0,0E0,2.0528293E2,6.727361E2,1.503968E3,9.689209E1,8.3472275E1,2.0716618E2,1.8530273E2,6.1906773E1,6.186035E0,0E0,3.1082153E-2,3.4414062E2,1.0458832E0,0E0,0E0,5.1875093E3,1.7387139E3,1.1583594E2,8.2470746E2,8.779532E2,4.0968164E2,5.1271E0,0E0,1.9906982E1,6.156933E2,1.5475E2,1.0773883E3,1.0472242E1,0E0,1.6615234E1,3.114761E2,0E0,0E0,0E0,0E0,0E0,0E0,4.124756E0,1.02429184E2,5.013131E2,1.2289764E1,1.321875E1,2.3853207E2,0E0,0E0,4.815094E0,3.362388E1,0E0,0E0,0E0,0E0,0E0,0E0,0E0,0E0,2.5640625E2,0E0,0E0,0E0,4.0943066E2,9.6088257E2,2.3076172E0,6.217328E2,4.6210498E2,1.10546875E1,2.3313538E1,0E0,2.1806708E2,1.1185446E2,2.0327148E1,0E0,0E0,0E0,4.8064106E1,8.2178955E0,2.040947E0,5.520459E1,8.215625E1,1.3547769E3,0E0,9.2987854E1,0E0,0E0,4.2925446E1,4.8027344E0,0E0,0E0,0E0,7.840588E1,8.929413E0,3.205428E1,2.6208765E2,0E0,0E0,0E0,7.1196747E0,3.161621E0,0E0,0E0,0E0,0E0,0E0,0E0,1.5073438E2,0E0,4.714795E1,0E0,1.080389E3,2.2085352E2,0E0,0E0,9.039642E1,4.4813538E-1,1.954974E3,1.1573242E1,0E0,5.3375E1,0E0,0E0,0E0,2.9595947E-1,2.7909546E0,0E0,0E0,0E0,0E0,0E0,2.953247E0,0E0,0E0,0E0,5.289917E0,0E0,6.921992E2,2.1409375E2,8.27743E2,4.5143555E1,1.1681519E1,7.373306E1,0E0,0E0,0E0,0E0,6.1382202E1,0E0,0E0,0E0,0E0,0E0,1.9784442E2,0E0,1.9680998E1,0E0,0E0,1.8517143E1,2.7516406E2,1.4740645E3,1.5966797E1,0E0,9.895142E0,0E0,3.005249E1,0E0,2.3194153E1,0E0,0E0,0E0,5.786743E0,2.7593622E2,0E0,8.564453E-1,2.5538013E2,3.1054688E-1,0E0,0E0,0E0,0E0,0E0,7.999916E0,0E0,4.7229004E-1,5.2285156E0,1.440423E3,1.0284375E2,5.748772E1,1.223053E1,9.0888855E1,0E0,7.3012695E0,4.4111023E0,0E0,0E0,0E0,5.937813E0,0E0,1.1412231E1,3.605004E2,0E0,1.9651642E0,0E0,0E0,1.35546875E1,0E0,4.9642944E0,1.5767578E1,1.8012695E0,0E0,6.4037476E0,3.1908264E0,0E0,0E0,6.8058634E-1,7.8919067E0,0E0,2.8674316E-1,1.2890625E0,0E0,8.500206E0,0E0,4.9864502E1,2.5280876E2,0E0,6.09375E-1,0E0,0E0,0E0,7.1502686E0,5.2578125E0,0E0,0E0,9.829158E2,6.25E0,1.2163214E2,0E0,0E0,0E0,8.537675E0,0E0,0E0,5.607422E0,0E0,1.1045307E1,0E0,1.1408548E0,0E0,0E0,8.108917E0,4.268757E1,3.302942E1,0E0,0E0,0E0,0E0,1.7411804E-1,0E0,6.995578E1,4.979492E0,0E0,0E0,0E0,0E0,8.3086014E-1,0E0,0E0,0E0,1.8178406E0,3.288292E0,0E0,6.9669724E-1,0E0,0E0,0E0,0E0,1.352876E2,0E0,1.3428654E2,0E0,2.3708496E0,0E0,0E0,0E0,4.0625E0,6.746979E1,0E0,0E0,0E0,0E0,0E0,0E0,0E0,0E0,4.8110657E1,0E0,0E0,0E0,0E0,0E0,0E0,0E0,0E0,0E0,0E0,0E0,0E0,0E0,0E0,0E0,0E0,0E0,0E0,0E0,0E0,0E0,0E0,0E0,0E0,0E0,0E0,0E0,0E0,0E0,0E0,0E0,0E0,0E0,0E0,0E0,0E0,0E0],"parents":[2147483647,0,0,1,1,2,2,3,3,4,4,6,6,7,7,8,8,9,9,10,10,11,11,12,12,13,13,14,14,15,15,16,16,17,17,18,18,19,19,20,20,23,23,25,25,26,26,27,27,28,28,29,29,30,30,31,31,33,33,34,34,35,35,36,36,37,37,39,39,43,43,44,44,45,45,46,46,47,47,49,49,50,50,55,55,56,56,57,57,58,58,59,59,60,60,61,61,62,62,63,63,64,64,66,66,67,67,72,72,73,73,74,74,75,75,76,76,77,77,78,78,79,79,80,80,82,82,83,83,84,84,87,87,88,88,89,89,90,90,91,91,92,92,93,93,95,95,96,96,97,97,98,98,99,99,101,101,102,102,109,109,110,110,111,111,112,112,113,113,114,114,117,117,118,118,127,127,131,131,132,132,133,133,134,134,135,135,136,136,137,137,139,139,140,140,141,141,145,145,146,146,147,147,148,148,149,149,150,150,152,152,155,155,156,156,160,160,161,161,162,162,163,163,167,167,168,168,175,175,177,177,179,179,180,180,183,183,184,184,185,185,186,186,188,188,192,192,193,193,199,199,203,203,205,205,206,206,207,207,208,208,209,209,210,210,215,215,221,221,223,223,226,226,227,227,228,228,229,229,231,231,233,233,235,235,239,239,240,240,242,242,243,243,244,244,250,250,252,252,253,253,254,254,255,255,256,256,257,257,258,258,260,260,261,261,265,265,267,267,268,268,270,270,273,273,275,275,276,276,277,277,279,279,280,280,283,283,284,284,286,286,287,287,289,289,291,291,292,292,294,294,298,298,299,299,302,302,303,303,304,304,308,308,311,311,313,313,315,315,318,318,319,319,320,320,325,325,327,327,328,328,333,333,337,337,338,338,340,340,345,345,347,347,349,349,353,353,354,354,363,363],"right_children":[2,4,6,8,10,-1,12,14,16,18,20,22,24,26,28,30,32,34,36,38,40,-1,-1,42,-1,44,46,48,50,52,54,56,-1,58,60,62,64,66,-1,68,-1,-1,-1,70,72,74,76,78,-1,80,82,-1,-1,-1,-1,84,86,88,90,92,94,96,98,100,102,-1,104,106,-1,-1,-1,-1,108,110,112,114,116,118,120,122,124,-1,126,128,130,-1,-1,132,134,136,138,140,142,144,-1,146,148,150,152,154,-1,156,158,-1,-1,-1,-1,-1,-1,160,162,164,166,168,170,-1,-1,172,174,-1,-1,-1,-1,-1,-1,-1,-1,176,-1,-1,-1,178,180,182,184,186,188,190,-1,192,194,196,-1,-1,-1,198,200,202,204,206,208,-1,210,-1,-1,212,214,-1,-1,-1,216,218,220,222,-1,-1,-1,224,226,-1,-1,-1,-1,-1,-1,228,-1,230,-1,232,234,-1,-1,236,238,240,242,-1,244,-1,-1,-1,246,248,-1,-1,-1,-1,-1,250,-1,-1,-1,252,-1,254,256,258,260,262,264,-1,-1,-1,-1,266,-1,-1,-1,-1,-1,268,-1,270,-1,-1,272,274,276,278,-1,280,-1,282,-1,284,-1,-1,-1,286,288,-1,290,292,294,-1,-1,-1,-1,-1,296,-1,298,300,302,304,306,308,310,-1,312,314,-1,-1,-1,316,-1,318,320,-1,322,-1,-1,324,-1,326,328,330,-1,332,334,-1,-1,336,338,-1,340,342,-1,344,-1,346,348,-1,350,-1,-1,-1,352,354,-1,-1,356,358,360,-1,-1,-1,362,-1,-1,364,-1,366,-1,368,-1,-1,370,372,374,-1,-1,-1,-1,376,-1,378,380,-1,-1,-1,-1,382,-1,-1,-1,384,386,-1,388,-1,-1,-1,-1,390,-1,392,-1,394,-1,-1,-1,396,398,-1,-1,-1,-1,-1,-1,-1,-1,400,-1,-1,-1,-1,-1,-1,-1,-1,-1,-1,-1,-1,-1,-1,-1,-1,-1,-1,-1,-1,-1,-1,-1,-1,-1,-1,-1,-1,-1,-1,-1,-1,-1,-1,-1,-1,-1],"split_conditions":[1.4006622E0,-7.6210566E-2,7.033898E-1,2E-1,1E0,-1.3883041E-1,7.711864E-1,4.9974993E-2,-4.8822165E-4,-5.366814E-1,-2.5917112E-3,3.4492874E-1,1.0087349E1,8.3333336E-2,1.764706E-1,7.846391E0,3.7469792E0,-1.2758872E-1,5.672727E0,9.1525424E-1,7.457627E-1,1.4435288E-1,2.7536145E-1,1.3908775E0,4.4972934E-2,1E0,5.004272E-3,3.7469792E0,4.147059E0,8.559322E-1,2.631579E-1,8.3829385E-1,-1.4107943E-1,1E0,-2.2222223E-2,-1.972489E-2,2.59365E-1,7.0166664E1,9.697021E-2,5.042373E-1,-1.4068237E-1,-1.4006563E-1,-1.058591E-1,2.1174853E-1,-2.4525806E-2,-4.8822165E-4,1E0,7.5E-1,-1.4080049E-1,-1.2803917E-1,6.0831778E-2,-1.3971692E-1,-9.9927604E-2,1.9535093E-1,2.7093476E-1,-1.7648585E-2,-1.0842457E-1,4.5474575E1,1E0,-6.9508517E-1,-8.255942E-2,5.138083E-2,1.2197503E0,1.4696498E-1,2.8305085E0,-1.4077087E-1,8.33157E-1,-2.4242425E-1,2.7489027E-1,-1.4125821E-1,-3.3925846E-2,-1.3872994E-1,-3.7259187E-3,1E0,-2.4910897E-3,1.8522611E4,1E0,7.695411E-1,1.6607988E-1,-1.3213639E-1,2.0882354E0,2.6911414E-1,-1.326841E-1,1.8522611E4,-1.3297068E-1,2.6657656E-1,-1.376026E-1,0E0,-1.9205814E-2,0E0,-2.4411082E-3,-1.5867203E-3,8.450704E-2,-8.50453E-2,-1.4092724E-1,-3.318052E-2,3.5036006E0,9.208867E-1,1E0,2.7777777E0,2.7512288E-1,4.7331083E-1,-9.88945E-2,-1.3752642E-1,1.489234E-1,7.0660315E-2,-1.4055571E-1,2.623678E-1,-1.3532643E-1,-3.4175515E-3,-3.4718127E-3,-3.3503957E-2,3.539607E-3,6.590992E-3,1E0,-6.431845E-2,2.6594877E-1,-1.07564054E-1,1.3918518E2,2.7151442E-1,-1.3073823E-1,-1.2083703E-1,1.9535093E-1,-1.4030248E-1,-5.681028E-2,2.2343357E-1,1.5969509E-1,1E0,-1.174579E-1,-1.3787681E-1,-8.315797E-2,2E-1,0E0,-1.07564054E-1,1.2407408E1,7.79661E-1,-2.1969974E-3,-4.676841E-2,-1.401036E-1,7.904911E-2,8.8831383E-1,1.04737826E-1,-1.363239E-1,-1.327848E-1,-3.605915E-2,-4.3025624E-2,1.0470589E1,-7.8337595E-2,5.1271186E0,-5.4037027E-2,4.6370405E-1,2.7064466E-1,1.1977695E0,-1.3072175E-1,-7.799853E-3,9.7040795E-2,4.5416665E0,-1.3708423E-1,2.6074362E-1,-1.4077318E-1,-2.4411082E-3,-2.40903E-2,-2.4411082E-3,-6.5789476E-2,-1.3910052E-1,-1.377231E-1,-2.9826924E-2,-4.2539737E-3,3.0818333E3,2.2147919E-1,-1.3930392E-1,-1.4060602E-1,-7.861949E-2,2.4839881E-1,2.1013074E-2,5.004272E-3,-1.3347594E-1,4E-1,-1.2513752E-1,-4.255956E-3,1.6355932E0,-1.412735E-1,-8.620953E-2,1.11501485E-1,4.3303705E2,7.118644E-1,-5.969817E-4,-1.4120764E-1,7.3233247E-4,1.0371223E-1,2.7301157E-1,-1.2137083E-1,1.9616721E0,1.8052727E2,1.204725E-1,2.7482733E-1,1.2658468E-1,-1.3621753E-1,1.13132E-1,1.3645833E1,-6.534392E-2,-1.3625853E-1,-7.373821E-2,5.936508E-1,4.316161E-2,-5.5490937E-2,1E0,6.30303E-1,1E0,5.1144576E0,6E-1,9.429247E-2,-1.3688025E-1,-1.4122504E-1,-6.431845E-2,1E0,-1.3750803E-1,1.4386222E-1,2.6498345E-1,1.0066838E-1,-1.3050285E-1,-3.6616623E-4,2.6585194E-1,5.660514E1,-1.3382663E-1,-1.405993E-1,4.14195E-3,-1.1746988E-1,1.2466152E0,1.7067797E1,5.7062592E-2,5.882353E-2,-1.3953017E-1,-4.683885E-2,2.2440994E-1,4.57586E-3,2.70956E-1,-9.3656555E-2,-1.3997848E-1,-4.272094E-3,1E0,-5.616533E-2,8.0932206E-1,4.8822165E-4,1.2691222E1,2.7199575E-1,1.9400804E-1,-1.389723E-1,-7.373821E-2,-1.4089757E-1,-2.4286162E-3,1.8430798E-1,2.3964634E-2,6.2E0,7.457627E-1,6.2256067E2,1.0469554E2,8.3333336E-2,3.9583333E0,4.6627674E-2,3.7002605E3,5E-1,-5.1023852E-2,2.553349E-1,-1.0199751E-1,1.8130383E1,1.5817003E-1,4.9324516E1,1.3426095E-3,3.2276858E-2,-2.1084337E-1,6.179327E-3,-1.3856208E-1,8.677966E0,-1.1692578E-1,1.4165671E1,2.6899433E0,5E-1,1.6912189E-1,1.0257018E0,-2.4816547E-2,-1.4120354E-1,2.4602467E-2,-1.308699E-3,9.685185E0,-6.457585E-2,4.5338982E-1,8.474576E-3,-1.2506668E-1,-1.112848E-2,-1.4105201E-1,-4.2703524E-3,8.3474576E-1,-1.4003775E-1,6.925848E1,-2.6639383E-2,-1.3580734E-1,2.7378416E-1,4.3220338E-1,1.911087E2,-7.776251E-2,-1.4092204E-1,-8.478242E-3,1.6585757E0,1E0,-3.605915E-2,2.607251E-1,-1.3973732E-1,2.6172498E-1,2.7294514E-1,-2.2589685E-2,5E-1,-5.156908E-2,5.289099E-2,-1.3994461E-1,-3.8363987E-3,-1.3213845E-1,2.5608078E-1,-2.4819357E-2,1.0984987E-3,3.539607E-3,-7.429209E-2,-1.3447553E-1,2.752366E-1,1.4139129E-1,2.2087753E-1,-6.739241E-2,4.2254934E5,1.6867657E0,2.7416056E-1,2.0676212E-1,1.6277602E-1,2.7228543E-1,-4.2717974E-3,2.2917157E-1,5.9371796E-2,2.6077418E-2,4.227381E-2,5.0704185E-2,-1.3944878E-1,1.4512388E-1,2.0213524E-1,2.6782078E-1,-4.034219E-2,-1.3625376E-1,-1.5867203E-3,-1.4108127E-1,7.881356E-1,-1.369584E-1,-2.4823375E-2,-1.4118373E-1,2.5955886E-1,1.4595479E-1,-1.263085E-2,1.4814814E0,2.7240577E-1,-1.3987906E-1,-1.4123113E-1,-7.3100895E-2,-1.346643E-1,2.4566549E-1,-1.120797E-1,8.754006E-3,1.2545125E1,-1.404637E-1,-7.799853E-3,-1.352509E-1,-1.7219618E-2,-6.602185E-2,2.479787E-1,1.4691058E-1,1.2792802E-2,-9.922202E-2,1.9475245E-1,4.9583048E-2,-1.3550559E-1,-9.257774E-2,-2.6639383E-2,2.6792404E-1,2.590105E-1,2.7511495E-1,1.8316014E-1,1.13132E-1,1.5831679E-1,1.23286895E-1,5.195428E-2,1.1563014E-1,-7.666396E-2,-1.3138705E-1,-2.105305E-2,-1.2764442E-1,-1.10401735E-1,2.3946543E-1,-1.3399462E-1,-7.373821E-2,-1.4128542E-1,-1.3592175E-1,-1.3671273E-1,8.3864875E-2,-1.3935085E-1,-3.2691084E-2],"split_indices":[13,37,66,2,43,0,66,1,65,8,21,52,4,68,38,22,65,52,35,24,66,0,0,42,0,43,65,65,38,24,34,14,0,47,6,5,5,29,0,66,0,0,0,17,16,65,46,68,0,52,1,0,0,0,0,5,40,24,30,8,14,22,13,13,24,0,37,35,0,0,0,0,1,48,23,19,47,73,22,15,38,0,15,19,15,0,0,51,5,51,65,65,11,14,0,37,65,13,46,6,0,5,36,0,0,0,0,0,0,65,1,39,65,65,48,0,0,40,19,0,0,0,0,0,0,0,0,48,0,0,0,3,3,40,19,66,65,41,0,14,12,9,0,0,0,40,7,14,24,12,39,0,52,0,0,16,29,0,0,0,65,16,65,34,0,0,0,1,19,0,0,0,0,0,0,65,0,2,0,1,24,0,0,1,19,66,20,0,65,0,0,0,36,36,0,0,0,0,0,29,0,0,0,6,0,12,48,35,46,4,2,0,0,0,0,30,0,0,0,0,0,65,0,15,0,0,20,4,20,24,0,38,0,41,0,27,0,0,0,1,48,0,66,65,14,0,0,0,0,0,1,0,39,3,66,14,14,68,29,0,69,67,0,0,0,15,0,15,65,0,4,0,0,24,0,36,22,67,0,14,16,0,0,22,19,0,66,24,0,17,0,1,66,0,66,0,0,0,24,14,0,0,5,40,47,0,0,0,52,0,0,67,0,14,0,1,0,0,16,65,65,0,0,0,0,18,0,70,1,0,0,0,0,1,0,0,0,27,17,0,65,0,0,0,0,65,0,66,0,16,0,0,0,5,19,0,0,0,0,0,0,0,0,26,0,0,0,0,0,0,0,0,0,0,0,0,0,0,0,0,0,0,0,0,0,0,0,0,0,0,0,0,0,0,0,0,0,0,0,0,0],"split_type":[0,0,0,0,0,0,0,0,0,0,0,0,0,0,0,0,0,0,0,0,0,0,0,0,0,0,0,0,0,0,0,0,0,0,0,0,0,0,0,0,0,0,0,0,0,0,0,0,0,0,0,0,0,0,0,0,0,0,0,0,0,0,0,0,0,0,0,0,0,0,0,0,0,0,0,0,0,0,0,0,0,0,0,0,0,0,0,0,0,0,0,0,0,0,0,0,0,0,0,0,0,0,0,0,0,0,0,0,0,0,0,0,0,0,0,0,0,0,0,0,0,0,0,0,0,0,0,0,0,0,0,0,0,0,0,0,0,0,0,0,0,0,0,0,0,0,0,0,0,0,0,0,0,0,0,0,0,0,0,0,0,0,0,0,0,0,0,0,0,0,0,0,0,0,0,0,0,0,0,0,0,0,0,0,0,0,0,0,0,0,0,0,0,0,0,0,0,0,0,0,0,0,0,0,0,0,0,0,0,0,0,0,0,0,0,0,0,0,0,0,0,0,0,0,0,0,0,0,0,0,0,0,0,0,0,0,0,0,0,0,0,0,0,0,0,0,0,0,0,0,0,0,0,0,0,0,0,0,0,0,0,0,0,0,0,0,0,0,0,0,0,0,0,0,0,0,0,0,0,0,0,0,0,0,0,0,0,0,0,0,0,0,0,0,0,0,0,0,0,0,0,0,0,0,0,0,0,0,0,0,0,0,0,0,0,0,0,0,0,0,0,0,0,0,0,0,0,0,0,0,0,0,0,0,0,0,0,0,0,0,0,0,0,0,0,0,0,0,0,0,0,0,0,0,0,0,0,0,0,0,0,0,0,0,0,0,0,0,0,0,0,0,0,0,0,0,0,0,0,0,0,0,0,0,0,0,0,0,0,0,0,0,0,0,0,0,0,0,0,0,0],"sum_hessian":[2.6893188E5,2.0429789E5,6.4633973E4,3.4263344E4,1.7003455E5,1.5197867E2,6.4481996E4,1.7067787E4,1.7195557E4,1.6642002E5,3.614537E3,6.4370812E4,1.1118204E2,1.3074873E4,3.9929146E3,6.4310736E2,1.655245E4,2.882529E4,1.3759472E5,1.2111221E3,2.403415E3,9.414608E0,6.43614E4,1.00870804E2,1.0311237E1,8.099029E3,4.9758447E3,1.876421E3,2.1164937E3,5.8594727E2,5.716012E1,1.6196264E4,3.56186E2,2.5925812E4,2.899475E3,1.3257136E5,5.0233657E3,1.2012592E3,9.862923E0,2.2478499E3,1.5556519E2,8.271406E1,1.8156744E1,8.011159E3,8.7869675E1,2.1324087E3,2.8434358E3,1.6894739E3,1.8694722E2,2.0227958E3,9.369777E1,5.6823883E2,1.770843E1,1.1207867E1,4.5952255E1,1.6095617E4,1.00646645E2,6.2723706E3,1.9653443E4,2.0324346E3,8.670406E2,1.1077855E3,1.3146356E5,8.112254E2,4.2121406E3,1.0851456E3,1.16113495E2,1.4121912E2,2.1066306E3,8.001296E3,9.862923E0,4.0796635E1,4.707304E1,1.2768002E3,8.556085E2,2.8129504E3,3.0485397E1,1.7977419E2,1.5096996E3,2.0398317E1,2.0023975E3,4.7297195E1,4.6400566E1,1.6055718E4,3.9900005E1,2.2864048E1,7.778259E1,1.7230974E3,4.549273E3,1.9472324E4,1.8111913E2,2.979051E2,1.7345294E3,2.1294947E1,8.457456E2,8.681614E2,2.3962419E2,1.3111366E5,3.499096E2,2.7571352E1,7.8365405E2,4.1392896E3,7.2851135E1,1.00422485E2,1.5691013E1,9.414608E0,1.318045E2,2.9588768E1,1.7484272E1,1.2100013E3,6.679889E1,6.375035E2,2.1810509E2,2.73853E3,7.4420235E1,9.190451E0,2.1294947E1,1.5623766E2,2.353652E1,1.5000609E3,9.638765E0,9.190451E0,1.1207867E1,1.9929829E3,9.414608E0,3.5641014E1,1.0759552E1,1.6036216E4,1.9501688E1,3.0709555E1,9.190451E0,8.444007E2,8.786968E2,4.210347E3,3.389259E2,2.8160886E3,1.6656234E4,9.593934E1,8.517979E1,1.1207867E2,1.8582643E2,1.7134586E3,2.107079E1,1.2104496E1,9.190451E0,2.9812925E1,8.3834845E2,4.8193825E1,1.9143036E2,1.2841055E5,2.7031133E3,8.24899E1,2.674197E2,1.8380901E1,9.190451E0,3.2951126E1,4.1063384E3,4.6624725E1,2.6226408E1,6.3391693E2,5.7608435E2,4.7297195E1,1.9501688E1,5.899821E2,4.7521355E1,2.0779385E2,1.0311237E1,6.657473E1,2.6719553E3,2.2191576E1,5.222866E1,1.403225E2,1.5915171E1,1.3897755E1,9.638765E0,1.602299E4,1.3225283E1,8.210883E2,2.3312363E1,2.595742E2,6.1912256E2,4.198915E3,1.1432024E1,2.5195285E2,8.6973045E1,7.4083997E2,2.0752485E3,6.2822334E3,1.0374001E4,9.190451E0,8.6748886E1,1.4121912E1,9.795676E1,1.7013542E2,1.5691013E1,1.7033716E3,1.008708E1,2.0622475E1,9.190451E0,8.228816E2,1.5466856E1,3.9003376E1,9.190451E0,1.7999834E2,1.1432024E1,9.10146E3,1.19309086E5,2.1765677E2,2.4854565E3,2.4859048E2,1.8829216E1,9.190451E0,2.3760677E1,4.097148E3,9.190451E0,4.281405E1,5.332703E2,1.008708E1,3.7210117E1,1.008708E1,9.414608E0,4.0236243E2,1.8761969E2,4.034832E1,2.6226408E1,2.62421E3,4.7745514E1,1.436445E4,1.6585402E3,8.114495E2,9.638765E0,1.5063373E2,1.0894046E2,6.047765E2,1.4346069E1,2.0577643E2,4.617641E1,9.414608E0,7.755844E1,5.693596E2,1.7148036E2,1.5915171E1,2.0593335E3,2.1391335E3,8.234868E3,8.8093834E1,9.862923E0,1.6094496E2,9.190451E0,7.9463776E2,2.8243824E1,1.5915171E1,1.6408316E2,8.430109E3,6.713512E2,1.19286445E5,2.263989E1,8.5403946E1,1.3225282E2,1.1207867E1,2.4742485E3,2.3155452E2,1.7035957E1,9.638765E0,9.190451E0,2.9812925E1,1.3001125E1,1.192517E2,2.8311072E2,1.1656181E1,2.8692139E1,9.414608E0,3.8330902E1,1.4349208E4,1.5242699E1,9.078372E1,1.5677563E3,7.9351697E2,1.7932587E1,1.0580226E2,4.4831467E1,5.953619E2,9.414608E0,2.7123037E1,1.786534E2,1.1656181E1,5.577034E2,1.539961E2,1.7484272E1,6.769551E1,1.991638E3,2.0405042E3,9.862923E1,6.6503E3,1.5845682E3,9.190451E0,1.9053373E1,1.2889047E2,3.5192703E1,8.414418E3,1.5691013E1,4.3598602E2,2.353652E2,1.192582E5,2.8243824E1,9.190451E0,1.344944E1,6.612641E1,1.927753E1,1.2261406E2,9.638765E0,2.4643857E3,9.862923E0,2.6450565E1,2.0510396E2,1.8605059E1,1.1207867E1,7.778259E1,4.146911E1,1.2283822E2,1.6027249E2,1.344944E1,1.5242699E1,1.4340017E4,9.190451E0,7.4868546E1,1.5915171E1,3.6313488E1,1.5314429E3,7.776018E2,1.5915171E1,9.414608E0,9.638765E1,2.0846632E1,2.3984835E1,1.2776968E1,1.4346069E1,1.3651181E2,4.214158E1,5.377534E2,1.9950003E1,1.6139328E1,1.3785677E2,1.0535395E1,5.716012E1,7.706529E2,1.2698513E3,5.3349445E1,4.527978E1,1.0468147E3,5.377534E2,2.4208992E1,1.0983709E1,8.239127E3,1.7529103E2,1.6296239E2,7.240282E1,1.1924363E5,1.4570227E1,1.5691013E1,1.2552811E1,9.414608E0,9.862923E0,3.2592477E2,2.138461E3,9.190451E0,1.7260115E1,9.190451E0,9.414608E0,1.3673597E1,2.779551E1,7.4420235E1,4.8417984E1,1.4435733E2,1.5915171E1,6.56781E1,9.190451E0,9.190451E0,2.7123037E1,7.706529E2,7.6079E2,1.1656181E1,9.190451E0,9.840507E1,3.8106747E1,1.2328653E1,2.9812925E1,9.638765E0,1.0311237E1,1.2440732E2,6.462456E2,1.1880339E1,4.146911E1,1.0376243E3,9.190451E0,5.588018E3,2.651109E3,1.6273822E2,1.2552811E1,2.8266238E2,4.3262367E1],"tree_param":{"num_deleted":"0","num_feature":"77","num_nodes":"401","size_leaf_vector":"1"}},{"base_weights":[-3.088312E-2,-9.074239E-1,2.464697E0,7.606625E-1,-1.2641251E0,-1.3443689E-1,2.4728072E0,-8.804933E-1,2.2334776E0,-1.3159076E0,9.5917183E-1,2.4785576E0,-1.155624E0,-1.2339859E0,2.3611186E-1,-1.0161927E0,2.3455167E0,-9.369279E-1,-1.396266E0,-1.3753335E0,2.0307646E0,1.0903437E-1,2.3157051E-1,-1.3515972E0,8.6012736E-2,-1.4268702E0,-9.301282E-1,1.7529371E0,-1.240504E0,-1.4055731E0,2.2292064E-1,2.4168994E0,-1.3475502E-1,-1.1840881E0,1.1363105E0,-1.4218317E0,-7.388481E-1,-1.3960394E0,6.787762E-2,2.2524621E0,-1.3440157E-1,-6.8461105E-2,-1.3145669E-1,-1.4431757E0,6.790143E-2,-3.82816E-1,-1.3609424E0,2.0784714E0,-1.3450436E-1,-1.4129364E0,2.261702E0,-1.3266389E-1,-1.0449022E0,2.4320052E0,-4.0034568E-1,-6.480474E-1,-1.3596303E0,2.0943055E0,-1.4228307E0,-7.1729577E-1,-1.4278945E0,2.3863595E0,-1.4042114E0,-1.3463087E-1,-9.627593E-1,-1.2837595E0,2.3136704E-1,-1.3495703E-1,-2.5936216E-2,-1.3212132E-1,1.1142123E0,-1.1968671E0,7.6391804E-1,-1.3960258E0,1.6099226E0,-9.8902625E-1,2.411996E0,4.6992502E-1,-1.4330934E0,2.3693906E-1,1.9997065E0,-4.298019E-2,-1.2946464E-1,2.440302E0,-1.2705694E0,2.2572982E-1,-1.3233638E-1,8.561595E-1,-1.2722768E0,-1.3783374E0,6.134291E-1,-3.7870724E-2,2.427261E0,-7.062398E-1,-1.3459308E-1,-1.3890297E0,1.6084046E0,-1.4311895E0,-2.3451047E-1,2.4668982E0,-1.2481853E-1,-1.4320292E0,2.1240981E-1,1.3495564E0,-1.3408142E-1,7.7127926E-2,-1.343048E-1,2.2232474E-1,-1.2907296E-1,-1.3775301E0,1.5761436E0,-1.3479913E0,1.4436319E0,-1.42315E0,-3.9761606E-1,-1.9964546E-2,2.2497664E-1,-1.292788E0,2.1810591E-1,2.4374225E0,-1.18057E-1,-6.4936705E-2,1.564258E-1,-1.342117E-1,-6.826335E-2,1.2945688E-1,2.1193671E-1,2.4441652E0,-1.1526392E-1,-6.844446E-2,-1.3225302E-1,-7.3823553E-1,2.312984E0,-1.4435511E0,7.0919436E-1,-1.2001023E0,-1.408698E0,2.2932484E0,-1.337932E-1,2.012028E0,-1.2420247E0,2.467203E0,-1.2554136E-1,1.4878477E-2,-1.2746744E-1,-7.0022297E-1,-1.4136354E0,-1.2915437E-1,2.2556016E0,-1.4359952E0,-1.20391E0,2.3019744E-1,-1.1306368E0,1.4425676E-1,2.3133151E-1,-1.8459076E-1,-1.4381033E0,-1.3035709E-1,2.244472E-1,8.468886E-2,1.5886194E-1,-1.3437296E-1,-1.3097223E0,2.125725E0,-7.139002E-2,-1.4052869E0,-1.3033841E-2,1.6532396E0,-1.3286787E-1,-9.8114395E-1,-1.4333466E0,1.7261825E0,-1.3360484E-1,-1.4134775E0,-9.448969E-3,2.3533509E0,2.3176934E-1,2.4473078E0,-1.2814732E-1,7.382945E-1,-1.3480674E-1,2.4381258E0,-8.566514E-1,-8.0770336E-2,-1.3497844E-1,1.3572706E0,-1.3399972E-1,-5.8142227E-1,-1.4286131E0,-1.348982E-1,-1.3872113E0,6.488455E-2,2.2891773E-1,-1.2213791E-1,2.2823697E-1,-1.3306236E-1,6.508422E-2,2.3101872E-1,1.2882233E-1,-1.3082303E-1,6.774919E-2,-1.4288172E0,-5.0063416E-2,2.3601854E0,2.7424859E-2,-1.3434705E0,-1.4430228E0,1.0126615E0,-1.4000144E0,-1.2809663E0,2.1824907E-1,-1.2534836E-1,9.36444E-2,-7.1988505E-1,-1.3486488E-1,5.811321E-2,-1.3096176E-1,1.0955331E-1,2.3006785E0,-8.0410555E-2,-1.3390355E-1,1.2893237E0,2.2106518E-1,-1.1968373E-1,-7.0191157E-1,-1.341982E-1,-1.2379752E0,8.1396356E-2,2.1960294E-1,-9.5827445E-2,-1.3454579E-1,2.315964E-1,7.668959E-1,2.4736154E0,2.2157211E0,2.1839852E0,-1.3335796E-1,2.4523315E0,1.0907363E-1,-1.3149053E-1,6.1662868E-2,1.1226841E0,2.2839697E-1,-1.4025342E0,1.9531128E0,-4.377223E-2,-1.4348624E0,-1.242806E0,-1.4243164E0,-1.3470154E-1,-1.0697663E0,1.692759E-1,2.258849E-1,-1.4212768E0,-3.8166696E-1,-1.4436208E0,1.1921184E0,-1.2613202E0,2.3072891E0,-1.4089211E0,7.49803E-2,-1.3465592E0,-4.7589162E-1,8.244583E-2,-1.3208663E-1,-7.6482445E-1,1.7560348E-1,2.30263E-1,1.4536496E-1,9.0735257E-1,2.1571512E0,1.2082658E-2,-1.2056007E-1,-4.5435265E-2,-1.3227175E-1,1.6698886E0,-1.4626966E-1,2.4768064E0,-1.0248184E-1,-1.0884055E0,2.4040031E0,2.377679E0,1.7212439E0,2.3044239E-1,1.6843394E0,1.2999799E0,5.229945E-1,-1.4210861E0,-5.502887E-2,2.327067E0,-1.2029375E-1,-1.1832349E0,-1.3467993E-1,-1.3175796E0,3.0739352E-1,-1.3504802E-1,-1.4127346E0,-2.847125E-2,-1.3110217E-1,-1.4265094E0,-1.1620069E0,-1.3482666E-1,1.4596757E0,-1.4440792E0,3.7639034E-1,-9.190784E-2,2.2507367E-1,-2.215086E-2,-1.3036503E-1,2.3228255E-1,4.9016193E-2,-1.4270898E0,-1.2409167E0,-7.63485E-1,-1.333422E-1,-1.2830397E-1,5.286559E-2,-9.507548E-2,-3.1099398E-2,1.9056654E0,5.4786146E-1,2.220707E0,1.3182293E-1,7.3415115E-2,2.117164E-1,2.3145527E-1,1.4021848E-1,1.0256546E-1,-1.335621E-1,1.6431142E0,2.4211397E0,2.3051906E-1,1.2865065E-1,2.1140406E-1,1.2411169E-1,2.2259976E-1,7.947248E-2,3.1211229E-2,1.4324521E0,2.8525174E-1,1.4108121E-1,-1.3354158E-1,-9.4200104E-2,2.3820062E0,1.344951E-1,-1.3162178E-1,-9.241826E-3,-1.3490888E-1,-1.1160495E0,1.5207763E0,-1.3253064E-1,-7.3200904E-2,-1.414031E0,-1.4283053E0,-9.6859735E-1,-1.3794158E0,8.384793E-2,2.3046568E-1,-1.3341345E-1,-1.3491991E-1,-8.3493966E-1,-1.284973E-1,2.1028067E-1,-9.437284E-2,-1.3348833E-1,-1.637883E-1,-1.3887615E0,-1.3049285E-1,5.076356E-2,2.1974726E-1,1.6490687E-1,-3.0929338E-2,1.3326539E-1,2.3065798E-1,1.880927E-1,-7.7522136E-2,2.2948603E-1,2.210229E-1,2.3140156E-1,1.02026984E-1,1.3696545E-1,1.0643432E-2,4.1599542E-2,1.5942933E-1,2.2751337E-1,-1.7764522E-2,-1.21772796E-1,-1.0338317E-1,2.0490777E-1,-1.3085178E-1,-1.3503397E-1,-1.3493164E-1,-1.3002941E-1,1.392492E-2,-1.3178086E-1,-1.3385236E-1,-5.1186357E-2,-1.2568775E-1,-1.9603979E-2,-1.3007239E-1,2.1491916E-1,-5.8098055E-2,-1.3368832E-1],"categories":[],"categories_nodes":[],"categories_segments":[],"categories_sizes":[],"default_left":[0,0,0,0,0,0,0,0,0,0,0,0,0,0,0,0,0,0,0,0,0,0,0,0,0,0,0,0,0,0,0,0,0,0,0,0,0,0,0,0,0,0,0,0,0,0,0,0,0,0,0,0,0,0,0,0,0,0,0,0,0,0,0,0,0,0,0,0,0,0,0,0,0,0,0,0,0,0,0,0,0,0,0,0,0,0,0,0,0,0,0,0,0,0,0,0,0,0,0,0,0,0,0,0,0,0,0,0,0,0,0,0,0,0,0,0,0,0,0,0,0,0,0,0,0,0,0,0,0,0,0,0,0,0,0,0,0,0,0,0,0,0,0,0,0,0,0,0,0,0,0,0,0,0,0,0,0,0,0,0,0,0,0,0,0,0,0,0,0,0,0,0,0,0,0,0,0,0,0,0,0,0,0,0,0,0,0,0,0,0,0,0,0,0,0,0,0,0,0,0,0,0,0,0,0,0,0,0,0,0,0,0,0,0,0,0,0,0,0,0,0,0,0,0,0,0,0,0,0,0,0,0,0,0,0,0,0,0,0,0,0,0,0,0,0,0,0,0,0,0,0,0,0,0,0,0,0,0,0,0,0,0,0,0,0,0,0,0,0,0,0,0,0,0,0,0,0,0,0,0,0,0,0,0,0,0,0,0,0,0,0,0,0,0,0,0,0,0,0,0,0,0,0,0,0,0,0,0,0,0,0,0,0,0,0,0,0,0,0,0,0,0,0,0,0,0,0,0,0,0,0,0,0,0,0,0,0,0,0,0,0,0,0,0,0,0,0,0,0,0,0,0,0,0,0,0,0,0,0,0,0,0,0,0,0,0,0,0,0,0,0,0,0,0,0,0,0,0,0,0,0,0,0,0,0,0,0,0,0,0,0,0,0,0,0,0,0,0,0,0,0,0,0],"id":1,"left_children":[1,3,5,7,9,-1,11,13,15,17,19,21,23,25,27,29,31,33,35,37,39,-1,-1,41,-1,43,45,47,49,51,-1,53,-1,55,57,59,61,63,-1,65,-1,-1,-1,67,69,71,73,75,-1,77,79,-1,81,83,85,87,89,91,93,95,97,99,101,-1,103,105,-1,-1,-1,-1,107,109,111,113,115,117,119,121,123,-1,125,-1,-1,127,129,-1,-1,131,133,135,137,139,141,143,-1,145,147,149,151,153,-1,155,157,159,-1,-1,-1,-1,-1,161,163,165,167,169,171,-1,-1,173,-1,175,-1,-1,-1,-1,-1,-1,-1,177,-1,-1,-1,179,181,183,185,187,189,191,-1,193,195,197,-1,-1,-1,199,201,-1,203,205,207,-1,209,-1,-1,211,213,-1,-1,-1,-1,-1,215,217,-1,219,-1,221,-1,223,225,227,-1,229,-1,231,-1,233,-1,235,-1,237,239,-1,-1,241,-1,243,245,-1,247,-1,-1,-1,-1,-1,-1,-1,-1,-1,-1,249,-1,251,-1,253,255,257,259,261,-1,-1,-1,263,-1,265,-1,-1,267,-1,-1,269,-1,-1,271,-1,273,-1,-1,-1,-1,-1,275,277,279,281,-1,283,-1,-1,-1,285,-1,287,289,-1,291,293,295,-1,297,-1,-1,299,301,303,305,307,309,311,-1,313,315,-1,-1,317,-1,-1,-1,319,321,-1,-1,-1,-1,323,-1,325,-1,327,329,331,333,-1,335,337,339,341,-1,343,-1,345,-1,347,349,-1,351,-1,-1,353,355,-1,357,359,361,-1,-1,-1,-1,-1,-1,363,365,367,-1,-1,-1,-1,-1,369,371,373,-1,-1,-1,-1,-1,-1,-1,375,377,-1,-1,-1,-1,-1,-1,-1,379,381,-1,-1,-1,383,-1,-1,-1,-1,385,387,-1,-1,389,391,393,395,-1,-1,-1,-1,397,-1,-1,-1,-1,399,401,-1,-1,-1,-1,-1,-1,-1,-1,-1,-1,-1,-1,-1,-1,-1,-1,-1,-1,-1,-1,-1,-1,-1,-1,-1,-1,-1,-1,-1,-1,-1,-1,-1,-1,-1,-1],"loss_changes":[5.8341594E5,1.17443516E5,2.1975312E3,8.405033E4,1.8721719E4,0E0,1.4457812E3,6.4920195E3,6.6742656E3,4.83825E3,9.261842E3,1.2E1,4.567723E1,7.310039E2,8.860495E3,8.121593E2,4.792828E3,1.4247494E4,2.2026094E3,5.149121E1,1.9539795E3,0E0,0E0,2.538803E0,0E0,1.8639258E2,1.1437598E3,2.030355E3,1.2128184E3,1.5828857E0,0E0,7.408672E2,0E0,2.336707E3,7.263342E3,5.381094E2,1.0210654E4,2.1314209E1,0E0,1.8923896E3,0E0,0E0,0E0,1.18671875E1,1.2996106E2,1.9970607E3,2.8460938E2,1.8138936E3,0E0,7.30957E1,2.7268677E0,0E0,4.1955624E0,5.3365625E2,2.695375E2,5.7563975E3,6.9135156E2,1.530377E3,9.407593E0,1.6861498E3,4.9164062E2,2.609077E2,1.823623E2,0E0,1.22690865E2,4.718077E1,0E0,0E0,0E0,0E0,1.5768152E2,6.2830786E2,1.2765243E3,7.212207E1,4.7132347E1,1.7796315E2,1.5165723E2,3.0037373E1,3.7106934E0,0E0,5.9766846E0,0E0,0E0,2.4724219E2,2.1248398E0,0E0,0E0,4.1779346E3,1.4710732E3,9.886719E1,6.079533E2,7.2202277E2,2.8330273E2,1.230282E1,0E0,1.3295654E1,4.70687E2,1.348125E2,8.3731494E2,4.105957E0,0E0,2.9830078E1,2.456893E2,1.6494713E0,0E0,0E0,0E0,0E0,0E0,3.2507324E0,1.00112015E2,1.4731598E1,4.0562256E2,1.0556152E1,1.5981146E2,0E0,0E0,2.2796875E1,0E0,1.1552734E0,0E0,0E0,0E0,0E0,0E0,0E0,0E0,2.0925E2,0E0,0E0,0E0,8.947111E2,3.7441943E2,1.7910156E0,4.8085223E2,3.814109E2,1.03046875E1,2.2880463E1,0E0,1.5725897E2,6.590164E1,8.467773E0,0E0,0E0,0E0,3.1154917E1,1.0042725E1,0E0,4.0158997E1,7.7828125E1,1.1262317E3,0E0,1.3751843E2,0E0,0E0,2.87267E1,1.4661621E1,0E0,0E0,0E0,0E0,0E0,7.1229065E1,8.168091E0,0E0,2.069397E0,0E0,1.6015588E2,0E0,4.327404E0,3.6621094E-2,1.09978485E1,0E0,2.291565E-1,0E0,1.0904004E2,0E0,1.0058594E2,0E0,8.7270624E2,0E0,1.3947266E1,3.0985556E1,0E0,0E0,6.542282E1,0E0,1.5221658E3,1.1197754E1,0E0,5.13125E1,0E0,0E0,0E0,0E0,0E0,0E0,0E0,0E0,0E0,0E0,2.3823242E0,0E0,2.4467773E0,0E0,6.4579395E2,1.8017188E2,6.2274194E2,4.7532227E1,1.2564484E1,0E0,0E0,0E0,3.6047806E1,0E0,5.544235E1,0E0,0E0,3.2287598E0,0E0,0E0,1.3647083E2,0E0,0E0,1.6625942E1,0E0,5.436455E0,0E0,0E0,0E0,0E0,0E0,9.0060265E1,1.7825781E2,1.0996963E3,1.1661133E1,0E0,6.4624023E0,0E0,0E0,0E0,2.27193E1,0E0,7.5617676E0,2.192196E2,0E0,1.8735352E0,2.3465869E2,2.0898438E-1,0E0,7.4070396E0,0E0,0E0,9.425781E0,1.267082E3,9.51875E1,7.103032E1,1.0191414E1,4.176715E1,5.727539E0,0E0,9.868439E0,1.934656E1,0E0,0E0,2.4228601E0,0E0,0E0,0E0,1.03367004E2,3.4384155E0,0E0,0E0,0E0,0E0,1.4561707E1,0E0,7.1875E0,0E0,7.2491005E1,1.8546875E1,7.6118164E0,8.592651E0,0E0,9.175777E0,2.113208E1,1.1617726E1,6.094971E-1,0E0,5.0354004E0,0E0,1.336425E1,0E0,4.7772217E1,1.9748775E2,0E0,3.1796875E0,0E0,0E0,5.236328E0,7.360942E1,0E0,6.9226666E2,5.53125E0,9.793173E1,0E0,0E0,0E0,0E0,0E0,0E0,3.1884766E-1,3.7485382E1,2.5192698E1,0E0,0E0,0E0,0E0,0E0,1.4530945E0,1.6631403E2,1.9650269E0,0E0,0E0,0E0,0E0,0E0,0E0,0E0,8.033479E1,3.7890625E-1,0E0,0E0,0E0,0E0,0E0,0E0,0E0,3.2540894E-1,1.0812123E0,0E0,0E0,0E0,2.0484009E0,0E0,0E0,0E0,0E0,1.2931433E2,9.958419E1,0E0,0E0,4.375E-1,2.8583984E0,1.656542E1,5.7931213E0,0E0,0E0,0E0,0E0,5.926836E0,0E0,0E0,0E0,0E0,9.1627045E1,5.936432E0,0E0,0E0,0E0,0E0,0E0,0E0,0E0,0E0,0E0,0E0,0E0,0E0,0E0,0E0,0E0,0E0,0E0,0E0,0E0,0E0,0E0,0E0,0E0,0E0,0E0,0E0,0E0,0E0,0E0,0E0,0E0,0E0,0E0,0E0,0E0,0E0],"parents":[2147483647,0,0,1,1,2,2,3,3,4,4,6,6,7,7,8,8,9,9,10,10,11,11,12,12,13,13,14,14,15,15,16,16,17,17,18,18,19,19,20,20,23,23,25,25,26,26,27,27,28,28,29,29,31,31,33,33,34,34,35,35,36,36,37,37,39,39,43,43,44,44,45,45,46,46,47,47,49,49,50,50,52,52,53,53,54,54,55,55,56,56,57,57,58,58,59,59,60,60,61,61,62,62,64,64,65,65,70,70,71,71,72,72,73,73,74,74,75,75,76,76,77,77,78,78,80,80,83,83,84,84,87,87,88,88,89,89,90,90,91,91,92,92,93,93,95,95,96,96,97,97,98,98,99,99,101,101,102,102,103,103,109,109,110,110,111,111,112,112,113,113,114,114,117,117,119,119,127,127,131,131,132,132,133,133,134,134,135,135,136,136,137,137,139,139,140,140,141,141,145,145,146,146,148,148,149,149,150,150,152,152,155,155,156,156,162,162,163,163,165,165,167,167,169,169,170,170,171,171,173,173,175,175,177,177,179,179,181,181,182,182,185,185,187,187,188,188,190,190,201,201,203,203,205,205,206,206,207,207,208,208,209,209,213,213,215,215,218,218,221,221,224,224,226,226,232,232,233,233,234,234,235,235,237,237,241,241,243,243,244,244,246,246,247,247,248,248,250,250,253,253,254,254,255,255,256,256,257,257,258,258,259,259,261,261,262,262,265,265,269,269,270,270,275,275,277,277,279,279,280,280,281,281,282,282,284,284,285,285,286,286,287,287,289,289,291,291,293,293,294,294,296,296,299,299,300,300,302,302,303,303,304,304,311,311,312,312,313,313,319,319,320,320,321,321,329,329,330,330,338,338,339,339,343,343,348,348,349,349,352,352,353,353,354,354,355,355,360,360,365,365,366,366],"right_children":[2,4,6,8,10,-1,12,14,16,18,20,22,24,26,28,30,32,34,36,38,40,-1,-1,42,-1,44,46,48,50,52,-1,54,-1,56,58,60,62,64,-1,66,-1,-1,-1,68,70,72,74,76,-1,78,80,-1,82,84,86,88,90,92,94,96,98,100,102,-1,104,106,-1,-1,-1,-1,108,110,112,114,116,118,120,122,124,-1,126,-1,-1,128,130,-1,-1,132,134,136,138,140,142,144,-1,146,148,150,152,154,-1,156,158,160,-1,-1,-1,-1,-1,162,164,166,168,170,172,-1,-1,174,-1,176,-1,-1,-1,-1,-1,-1,-1,178,-1,-1,-1,180,182,184,186,188,190,192,-1,194,196,198,-1,-1,-1,200,202,-1,204,206,208,-1,210,-1,-1,212,214,-1,-1,-1,-1,-1,216,218,-1,220,-1,222,-1,224,226,228,-1,230,-1,232,-1,234,-1,236,-1,238,240,-1,-1,242,-1,244,246,-1,248,-1,-1,-1,-1,-1,-1,-1,-1,-1,-1,250,-1,252,-1,254,256,258,260,262,-1,-1,-1,264,-1,266,-1,-1,268,-1,-1,270,-1,-1,272,-1,274,-1,-1,-1,-1,-1,276,278,280,282,-1,284,-1,-1,-1,286,-1,288,290,-1,292,294,296,-1,298,-1,-1,300,302,304,306,308,310,312,-1,314,316,-1,-1,318,-1,-1,-1,320,322,-1,-1,-1,-1,324,-1,326,-1,328,330,332,334,-1,336,338,340,342,-1,344,-1,346,-1,348,350,-1,352,-1,-1,354,356,-1,358,360,362,-1,-1,-1,-1,-1,-1,364,366,368,-1,-1,-1,-1,-1,370,372,374,-1,-1,-1,-1,-1,-1,-1,376,378,-1,-1,-1,-1,-1,-1,-1,380,382,-1,-1,-1,384,-1,-1,-1,-1,386,388,-1,-1,390,392,394,396,-1,-1,-1,-1,398,-1,-1,-1,-1,400,402,-1,-1,-1,-1,-1,-1,-1,-1,-1,-1,-1,-1,-1,-1,-1,-1,-1,-1,-1,-1,-1,-1,-1,-1,-1,-1,-1,-1,-1,-1,-1,-1,-1,-1,-1,-1],"split_conditions":[1.4006622E0,-7.6210566E-2,5.042373E-1,2E-1,1E0,-1.3443689E-1,7.711864E-1,4.9974993E-2,-4.8822165E-4,-5.366814E-1,-2.5917112E-3,3.4492874E-1,3.05301E0,8.3333336E-2,1.764706E-1,8.434407E0,3.7469792E0,-1.2758872E-1,5.672727E0,8.559322E-1,7.457627E-1,1.0903437E-1,2.3157051E-1,-6.181594E-2,8.6012736E-2,1E0,5.004272E-3,3.7469792E0,4.147059E0,5.677966E-1,2.2292064E-1,8.3829385E-1,-1.3475502E-1,1E0,-2.2222223E-2,-3.856502E-2,2.2946998E-2,7.0166664E1,6.787762E-2,5.042373E-1,-1.3440157E-1,-6.8461105E-2,-1.3145669E-1,1.9094585E-1,-4.2688516E-3,-4.8822165E-4,1E0,7.5E-1,-1.3450436E-1,-1.2803917E-1,-8.0937445E-2,-1.3266389E-1,-6.666667E-2,-1.7648585E-2,-1.0842457E-1,4.5474575E1,1E0,-1.14285715E-1,-8.255942E-2,5.138083E-2,1.2197503E0,4.3358436E-1,3.542373E0,-1.3463087E-1,4.280319E-1,-2.4242425E-1,2.3136704E-1,-1.3495703E-1,-2.5936216E-2,-1.3212132E-1,-3.7878936E-3,1E0,1.8507273E1,1.8522611E4,1E0,1.0046221E1,1.6607988E-1,1.987853E-3,8.8611525E-1,2.3693906E-1,-7.395158E-2,-4.298019E-2,-1.2946464E-1,1.8522611E4,6.197183E-1,2.2572982E-1,-1.3233638E-1,-2.586347E-3,-1.9205814E-2,0E0,-2.4411082E-3,-2.4411082E-3,8.450704E-2,1.0635593E0,-1.3459308E-1,-3.318052E-2,3.5036006E0,9.208867E-1,1E0,1.6607988E-1,-1.2481853E-1,-6.348745E-2,1.24017514E-1,6.666667E-1,-1.3408142E-1,7.7127926E-2,-1.343048E-1,2.2232474E-1,-1.2907296E-1,-3.1734407E-3,-3.5615603E-4,3.0818333E3,-2.1084337E-1,6.590992E-3,2.7340412E-2,-1.9964546E-2,2.2497664E-1,6.152133E-1,2.1810591E-1,5.0389785E-1,-1.18057E-1,-6.4936705E-2,1.564258E-1,-1.342117E-1,-6.826335E-2,1.2945688E-1,2.1193671E-1,1E0,-1.1526392E-1,-6.844446E-2,-1.3225302E-1,0E0,2E-1,1.0178814E2,1.8277779E1,7.79661E-1,-2.1969974E-3,-4.683885E-2,-1.337932E-1,3.384682E-2,8.8831383E-1,1.04737826E-1,-1.2554136E-1,1.4878477E-2,-1.2746744E-1,-3.967919E-2,1.0470589E1,-1.2915437E-1,5.1271186E0,-5.4037027E-2,4.6370405E-1,2.3019744E-1,1E0,1.4425676E-1,2.3133151E-1,2.7777777E0,4.7331083E-1,-1.3035709E-1,2.244472E-1,8.468886E-2,1.5886194E-1,-1.3437296E-1,-2.4411082E-3,1.2177966E1,-7.139002E-2,-1.2205541E-4,-1.3033841E-2,-6.5789476E-2,-1.3286787E-1,1.5932204E0,3.0818333E3,1.7087758E-2,-1.3360484E-1,1.06258765E-1,-9.448969E-3,1.8522611E4,2.3176934E-1,3.539607E-3,-1.2814732E-1,-4.255956E-3,-1.3480674E-1,4E-1,1.04166664E-1,-8.0770336E-2,-1.3497844E-1,1.11501485E-1,-1.3399972E-1,7.118644E-1,-5.969817E-4,-1.348982E-1,7.3233247E-4,6.488455E-2,2.2891773E-1,-1.2213791E-1,2.2823697E-1,-1.3306236E-1,6.508422E-2,2.3101872E-1,1.2882233E-1,-1.3082303E-1,6.774919E-2,1.3645833E1,-5.0063416E-2,5.936508E-1,2.7424859E-2,-5.5490937E-2,1E0,5.090909E-1,6.62E0,2.7989168E0,2.1824907E-1,-1.2534836E-1,9.36444E-2,1.5338984E0,-1.3486488E-1,1E0,-1.3096176E-1,1.0955331E-1,-2.333535E-2,-8.0410555E-2,-1.3390355E-1,-2.5345553E-3,2.2106518E-1,-1.1968373E-1,-4.2539737E-3,-1.341982E-1,2.1221392E-2,8.1396356E-2,2.1960294E-1,-9.5827445E-2,-1.3454579E-1,2.315964E-1,2.7340412E-2,-1.1746988E-1,1.2466152E0,5.882353E-2,-1.3335796E-1,5E-1,1.0907363E-1,-1.3149053E-1,6.1662868E-2,9.685185E0,2.2839697E-1,1.0657313E3,1E0,-4.377223E-2,8.0932206E-1,4.8822165E-4,8.981921E1,-1.3470154E-1,6.1904764E-1,1.692759E-1,2.258849E-1,1.911087E2,7.457627E-1,6.2256067E2,4.8235292E0,5.1447994E-4,2.2620482E0,1.135746E0,7.49803E-2,5E-1,7.6271184E-2,8.244583E-2,-1.3208663E-1,3.085E2,1.7560348E-1,2.30263E-1,1.4536496E-1,-3.6616623E-4,-1.6170502E-2,1.2082658E-2,-1.2056007E-1,-4.5435265E-2,-1.3227175E-1,1.7087758E-2,-1.4626966E-1,8.677966E0,-1.0248184E-1,6.590992E-3,2.690494E0,3.7469792E0,5.811369E0,2.3044239E-1,1.6355932E0,3.7659423E-3,7.608174E-4,5.042373E-1,-5.502887E-2,-4.2539737E-3,-1.2029375E-1,9.074074E-1,-1.3467993E-1,8.154833E1,8.8135594E-1,-1.3504802E-1,1.5867203E-3,-2.847125E-2,-1.3110217E-1,9.5E0,1.4814814E0,-1.3482666E-1,-8.478242E-3,4.032085E1,1E0,-9.190784E-2,2.2507367E-1,-2.215086E-2,-1.3036503E-1,2.3228255E-1,4.9016193E-2,6.233184E-1,2.8808722E-1,2.8740764E-2,-1.333422E-1,-1.2830397E-1,5.286559E-2,-9.507548E-2,-3.1099398E-2,-2.4815474E-2,1.3426095E-3,-3.6616623E-4,1.3182293E-1,7.3415115E-2,2.117164E-1,2.3145527E-1,1.4021848E-1,1.0256546E-1,-1.335621E-1,-1.3254048E-1,1.6867657E0,2.3051906E-1,1.2865065E-1,2.1140406E-1,1.2411169E-1,2.2259976E-1,7.947248E-2,3.1211229E-2,6.9814816E0,-1.051069E-3,1.4108121E-1,-1.3354158E-1,-9.4200104E-2,0E0,1.344951E-1,-1.3162178E-1,-9.241826E-3,-1.3490888E-1,-1.5867203E-3,7.711864E-1,-1.3253064E-1,-7.3200904E-2,6.925848E1,-9.6894195E-3,2.0763041E-2,1.0470589E1,8.384793E-2,2.3046568E-1,-1.3341345E-1,-1.3491991E-1,1.3495977E-2,-1.284973E-1,2.1028067E-1,-9.437284E-2,-1.3348833E-1,2.847132E-1,8E-1,-1.3049285E-1,5.076356E-2,2.1974726E-1,1.6490687E-1,-3.0929338E-2,1.3326539E-1,2.3065798E-1,1.880927E-1,-7.7522136E-2,2.2948603E-1,2.210229E-1,2.3140156E-1,1.02026984E-1,1.3696545E-1,1.0643432E-2,4.1599542E-2,1.5942933E-1,2.2751337E-1,-1.7764522E-2,-1.21772796E-1,-1.0338317E-1,2.0490777E-1,-1.3085178E-1,-1.3503397E-1,-1.3493164E-1,-1.3002941E-1,1.392492E-2,-1.3178086E-1,-1.3385236E-1,-5.1186357E-2,-1.2568775E-1,-1.9603979E-2,-1.3007239E-1,2.1491916E-1,-5.8098055E-2,-1.3368832E-1],"split_indices":[13,37,66,2,43,0,66,1,65,53,21,52,42,68,38,22,65,52,35,24,66,0,0,14,0,43,65,65,38,24,0,14,0,47,6,10,40,29,0,66,0,0,0,17,1,65,46,68,0,52,14,0,6,5,40,24,30,6,14,22,13,1,24,0,26,35,0,0,0,0,1,48,36,19,47,17,22,69,53,0,14,0,0,19,11,0,0,21,5,51,65,65,11,66,0,37,65,13,46,22,0,12,14,19,0,0,0,0,0,65,1,19,4,65,65,0,0,73,0,73,0,0,0,0,0,0,0,48,0,0,0,3,3,24,19,66,65,41,0,40,12,9,0,0,0,40,7,0,24,12,39,0,51,0,0,6,5,0,0,0,0,0,65,24,0,65,0,34,0,24,19,65,0,1,0,19,0,65,0,1,0,2,29,0,0,1,0,66,20,0,65,0,0,0,0,0,0,0,0,0,0,29,0,6,0,12,48,35,75,53,0,0,0,66,0,30,0,0,16,0,0,23,0,0,1,0,23,0,0,0,0,0,65,4,20,38,0,67,0,0,0,19,0,36,48,0,66,65,36,0,6,0,0,14,66,14,7,20,4,13,0,67,66,0,0,24,0,0,0,65,18,0,0,0,0,65,0,24,0,65,17,65,14,0,24,27,22,66,0,1,0,19,0,36,66,0,65,0,0,67,19,0,5,53,47,0,0,0,0,0,0,10,5,21,0,0,0,0,0,16,65,65,0,0,0,0,0,0,0,15,1,0,0,0,0,0,0,0,19,22,0,0,0,24,0,0,0,0,65,66,0,0,66,5,5,7,0,0,0,0,5,0,0,0,0,5,2,0,0,0,0,0,0,0,0,0,0,0,0,0,0,0,0,0,0,0,0,0,0,0,0,0,0,0,0,0,0,0,0,0,0,0,0],"split_type":[0,0,0,0,0,0,0,0,0,0,0,0,0,0,0,0,0,0,0,0,0,0,0,0,0,0,0,0,0,0,0,0,0,0,0,0,0,0,0,0,0,0,0,0,0,0,0,0,0,0,0,0,0,0,0,0,0,0,0,0,0,0,0,0,0,0,0,0,0,0,0,0,0,0,0,0,0,0,0,0,0,0,0,0,0,0,0,0,0,0,0,0,0,0,0,0,0,0,0,0,0,0,0,0,0,0,0,0,0,0,0,0,0,0,0,0,0,0,0,0,0,0,0,0,0,0,0,0,0,0,0,0,0,0,0,0,0,0,0,0,0,0,0,0,0,0,0,0,0,0,0,0,0,0,0,0,0,0,0,0,0,0,0,0,0,0,0,0,0,0,0,0,0,0,0,0,0,0,0,0,0,0,0,0,0,0,0,0,0,0,0,0,0,0,0,0,0,0,0,0,0,0,0,0,0,0,0,0,0,0,0,0,0,0,0,0,0,0,0,0,0,0,0,0,0,0,0,0,0,0,0,0,0,0,0,0,0,0,0,0,0,0,0,0,0,0,0,0,0,0,0,0,0,0,0,0,0,0,0,0,0,0,0,0,0,0,0,0,0,0,0,0,0,0,0,0,0,0,0,0,0,0,0,0,0,0,0,0,0,0,0,0,0,0,0,0,0,0,0,0,0,0,0,0,0,0,0,0,0,0,0,0,0,0,0,0,0,0,0,0,0,0,0,0,0,0,0,0,0,0,0,0,0,0,0,0,0,0,0,0,0,0,0,0,0,0,0,0,0,0,0,0,0,0,0,0,0,0,0,0,0,0,0,0,0,0,0,0,0,0,0,0,0,0,0,0,0,0,0,0,0,0,0,0,0,0,0,0,0,0,0,0,0,0,0,0,0,0,0,0,0,0,0],"sum_hessian":[2.6670575E5,1.9737928E5,6.932647E4,3.4771574E4,1.626077E5,1.4344643E2,6.918302E4,1.6446027E4,1.8325547E4,1.5890695E5,3.7007483E3,6.9073805E4,1.0921947E2,1.2491492E4,3.9545352E3,6.1053516E2,1.7715012E4,2.7801572E4,1.3110538E5,1.164204E3,2.5365444E3,9.093893E0,6.906471E4,1.000674E2,9.15207E0,7.639253E3,4.852239E3,1.9506678E3,2.0038673E3,5.48242E2,6.2293156E1,1.738763E4,3.2738217E2,2.4840566E4,2.9610063E3,1.2619685E5,4.908528E3,1.1531273E3,1.1076681E1,2.3844539E3,1.5209055E2,9.207792E0,9.0859604E1,7.556899E3,8.235406E1,2.1378484E3,2.7143901E3,1.7704285E3,1.8023941E2,1.9102715E3,9.3595894E1,5.248488E2,2.3393196E1,1.7295025E4,9.260578E1,6.128937E3,1.8711629E4,2.1546086E3,8.063977E2,1.077551E3,1.25119305E5,8.61248E2,4.04728E3,1.0428408E3,1.1028658E2,1.4186342E2,2.2425903E3,7.5476143E3,9.284867E0,3.3941753E1,4.84123E1,1.2503093E3,8.8753906E2,2.6831177E3,3.1272564E1,1.734547E2,1.5969738E3,2.0019403E1,1.8902521E3,4.2474632E1,5.1121265E1,9.330844E0,1.4062351E1,1.7256627E4,3.839837E1,2.4265902E1,6.8339874E1,1.797382E3,4.331555E3,1.8536143E4,1.754861E2,2.9106863E2,1.86354E3,2.0421453E1,7.8597626E2,8.3632294E2,2.4122807E2,1.2477457E5,3.4473132E2,8.432699E2,1.7978071E1,3.9789458E3,6.833414E1,1.84522E1,9.183438E1,9.391037E0,1.3247238E2,3.216749E1,1.6244814E1,1.1742046E3,7.610477E1,2.1589787E2,6.716412E2,2.6117725E3,7.1345314E1,9.652167E0,2.1620396E1,1.593589E2,1.4095786E1,1.5862677E3,1.07060175E1,1.0298531E1,9.720872E0,1.8800072E3,1.0244872E1,1.7022467E1,3.4098797E1,1.7238766E4,1.7860952E1,9.208423E0,2.9189947E1,8.5831635E2,9.3906555E2,3.9871523E3,3.4440286E2,2.7025645E3,1.5833578E4,9.633027E1,7.915582E1,1.07503746E2,1.8356488E2,1.8442789E3,1.9261105E1,9.00633E0,1.1415124E1,2.9697388E1,8.0662555E2,4.274428E1,1.984838E2,1.221868E5,2.5877764E3,8.559968E1,2.5913165E2,9.677561E0,8.3359235E2,1.9455935E1,3.95949E3,3.9536785E1,2.8797356E1,9.40907E0,9.043131E0,6.1075916E2,5.6344543E2,6.17136E1,1.4391169E1,2.0594815E2,9.949729E0,6.2617847E2,4.54627E1,6.066666E1,2.5511057E3,2.315296E1,4.819236E1,1.4451877E2,1.484014E1,5.545684E2,1.0316993E3,1.7224861E4,1.3903373E1,2.7725925E2,5.810571E2,9.035841E2,3.5481415E1,9.814479E0,3.977338E3,2.6468268E2,7.972017E1,7.297471E2,1.9728173E3,5.977256E3,9.856322E3,9.016555E0,8.731372E1,1.2163122E1,9.534063E1,1.6800455E2,1.5560336E1,1.8338302E3,1.0448748E1,1.9962332E1,9.735056E0,7.9237177E2,1.4253764E1,1.8826006E2,1.0223744E1,8.636148E3,1.1355065E5,2.1005692E2,2.3777192E3,2.4882385E2,1.0307812E1,9.838249E0,9.617686E0,3.083514E1,3.9286548E3,3.550082E1,5.2794464E2,1.0512316E1,5.1201286E1,1.1344471E1,1.9460368E2,4.1601086E2,2.1016762E2,2.785065E1,3.281601E1,2.5062676E3,4.4838215E1,1.0562966E1,1.2589993E1,1.13503065E1,1.3316846E2,5.1344476E2,4.112368E1,1.5461127E4,1.7637354E3,1.6628874E2,1.10970505E2,8.928616E2,1.0722589E1,2.6106186E1,9.375231E0,2.1899469E2,4.5687996E1,5.514507E2,1.782964E2,1.3199472E1,1.9596178E3,2.020446E3,7.8358765E3,7.623097E2,3.0062103E1,2.0296343E1,1.6796371E2,7.989404E3,6.4674493E2,1.1352524E5,2.5400322E1,7.6188995E1,1.3386792E2,2.368441E3,9.278501E0,2.2953304E2,1.929081E1,9.22351E0,2.1611631E1,2.4713305E1,1.0787513E1,4.049283E1,1.0708458E1,2.89965E2,1.2604587E2,1.3781619E1,1.9034391E1,9.186415E0,3.5651802E1,2.9820679E1,1.13029995E1,1.5447566E4,1.3559799E1,9.487549E1,1.6688599E3,1.1497681E2,5.131193E1,8.7484644E2,1.8015081E1,1.6826378E2,5.073091E1,5.38527E2,1.2923705E1,1.6005714E2,1.8239252E1,5.4809563E1,1.9048082E3,1.9276285E3,9.281754E1,2.7316921E3,5.104184E3,9.623775E0,2.043833E1,7.827833E3,1.6157063E2,4.1037213E2,2.3637282E2,1.1349686E5,2.8389065E1,9.137283E0,1.6263039E1,9.123426E0,6.706557E1,1.2134709E2,1.2520834E1,2.1319497E3,2.3649104E2,2.8961521E1,2.0057152E2,1.0280476E1,9.010335E0,1.484766E1,9.865644E0,7.588301E1,2.1408197E2,1.1472729E2,1.1318584E1,1.2745935E1,1.7074743E1,1.5435657E4,1.1909439E1,1.25592985E1,8.231619E1,3.841386E1,1.630446E3,1.04456894E2,1.051991E1,2.0026344E1,3.128559E1,9.01485E0,9.000232E0,2.067663E1,1.4758714E2,4.1705925E1,9.024987E0,5.259198E2,1.2607174E1,1.494866E2,1.0570545E1,4.512668E1,9.682887E0,1.1813475E3,7.4628094E2,5.4580524E1,3.8237015E1,1.1529503E1,5.092655E3,7.795542E3,3.2291237E1,1.4639606E2,1.5174568E1,1.7534718E2,6.102564E1,1.1347797E5,1.8886736E1,1.4752297E1,1.3636767E1,1.091952E1,2.1210303E3,2.8793755E1,2.0769728E2,1.9515965E1,9.445557E0,1.5285741E1,6.059727E1,1.072018E2,1.0688017E2,4.843006E1,6.6297226E1,9.47864E0,2.893522E1,8.350729E2,7.9537317E2,1.5672882E1,1.3191426E2,2.0987635E1,2.0718288E1,1.2797122E1,1.3668947E2,1.2593926E2,6.203417E2,1.1003617E1,4.357691E1,3.5931497E3,1.499505E3,5.3982427E3,2.3972993E3,9.235612E0,2.3055624E1,1.3698674E2,9.409312E0,9.864474E0,9.022261E0,1.944781E1,9.345943E0,1.1537425E1,1.9615987E2],"tree_param":{"num_deleted":"0","num_feature":"77","num_nodes":"403","size_leaf_vector":"1"}},{"base_weights":[-3.0664554E-2,-8.609161E-1,2.1612325E0,6.907245E-1,-1.2088277E0,-1.2806217E-1,2.16825E0,-8.300107E-1,1.9682915E0,-1.2601732E0,8.73999E-1,2.1729248E0,-1.0989391E0,-1.1813731E0,2.2662055E-1,-9.772951E-1,2.0627663E0,-8.8967234E-1,-1.3393189E0,-1.3227698E0,1.8090836E0,2.0301533E-1,1.8086895E0,-1.2894067E0,5.4433614E-2,-1.370935E0,-8.827191E-1,1.5875628E0,-1.1933824E0,-1.3565859E0,2.1090317E0,2.1214774E0,-1.2949224E-1,-1.1320242E0,1.026489E0,-1.3652186E0,-6.797633E-1,-1.3486931E0,4.9674176E-2,1.995047E0,-1.2914428E-1,9.3854055E-2,1.9615534E-1,-1.274517E-1,-1.0017066E0,-1.3868253E0,4.7672275E-2,-3.7449312E-1,-1.3124548E0,1.8499211E0,-1.2922272E-1,-1.3590709E0,1.88215E0,-1.288956E-1,-5.819811E-2,1.4176436E-1,2.0413485E-1,2.1350749E0,-3.5802492E-1,-6.222463E-1,-1.3005E0,1.8536599E0,-1.3651726E0,-6.4083016E-1,-1.3716058E0,2.091547E0,-1.3510675E0,-1.2968898E-1,-9.76794E-1,-1.1765755E0,2.0291527E-1,-1.246279E-1,-4.4649664E-2,-1.2971976E-1,-4.654821E-2,-1.2703016E-1,1.0668763E0,-1.1359985E0,5.8367467E-1,-1.348396E0,1.3029084E0,-9.184997E-1,2.1244102E0,4.657702E-1,-1.2880118E-1,2.0648259E-1,-1.0646706E-1,2.1421669E0,-1.2923248E-1,1.991577E-1,-1.2726809E-1,7.7588797E-1,-1.2210153E0,-1.3194655E0,5.858075E-1,3.4293927E-2,2.1288788E0,-6.9558215E-1,-1.2932338E-1,-1.3170625E0,1.4254842E0,-1.375064E0,-1.6136767E-1,-8.811684E-1,2.0304556E-1,-1.3783503E0,1.947374E-1,1.751517E-1,-1.3024318E0,9.008897E-2,-1.2945546E-1,1.9795085E-1,-1.2338939E-1,-1.3138305E0,1.3647175E0,-1.2819495E0,1.1661668E0,-1.3766263E0,-3.679874E-1,-3.3706136E-2,1.9800721E-1,-1.3006524E0,1.7484751E-1,2.1322536E0,1.0994692E-1,1.3817406E-1,-5.681789E-2,2.145339E0,-1.14541136E-1,-6.9814205E-1,2.0187852E0,-1.3866452E0,5.9277153E-1,-1.1394019E0,-1.3503814E0,2.0224981E0,-1.2853697E-1,1.768456E0,-1.1194987E0,2.1615672E0,-1.247683E-1,2.63956E-2,-1.2670103E-1,-1.3488456E0,-5.664794E-1,-1.23777986E-1,1.9466428E0,-1.3798032E0,-1.1535168E0,2.0207663E-1,-1.0808742E0,-6.341338E-3,-1.2575434E-1,-5.5220604E-1,-1.3853947E0,-1.2763904E-1,1.97086E-1,-5.289483E-2,-1.2944026E-1,-1.2917253E-1,-1.2396281E0,1.7879142E0,-8.69168E-2,-1.3465973E0,-3.0005679E-2,1.3813223E0,-1.2834439E-1,-1.2906508E-1,-1.0885347E0,1.6169561E0,-1.2845527E-1,-1.2805888E-1,-2.5336763E-2,1.2869848E-1,2.1363714E0,2.1476872E0,-1.22159325E-1,6.7137784E-1,-1.295294E-1,2.1367865E0,-8.3777577E-1,-7.213068E-2,-1.2966889E-1,1.162702E0,-1.2778053E-1,-5.162405E-1,-1.3735667E0,-1.2963079E-1,-1.3280783E0,5.3473342E-2,2.0217499E-1,-1.21941656E-1,2.0739975E0,-1.3445281E0,9.302951E-2,2.0252185E-1,1.0522922E-1,-1.3688365E0,-7.670144E-1,-1.017208E0,5.5236004E-2,2.0953784E0,-1.22412995E-1,-1.289889E0,-1.3865843E0,8.2270736E-1,-1.3494695E0,-1.2209889E0,1.918932E-1,1.1928501E-1,-1.2839943E-1,-1.2969086E-1,-2.8161855E-2,-1.9425456E-1,-1.2475203E-1,1.9970164E0,6.220769E-2,-7.084329E-2,-1.2831372E-1,1.0577865E0,1.9246967E-1,-3.890721E-3,-1.2704825E-1,7.756876E-2,1.9380933E-1,2.066441E0,2.030904E-1,2.1689515E0,1.9601153E0,1.9436363E0,-1.2894607E-1,2.1507053E0,8.213263E-2,-1.24457315E-1,5.565489E-2,9.3898165E-1,2.0065793E-1,-1.3576949E0,1.7728566E0,-3.1873737E-2,-1.3809842E0,-1.1792461E0,-1.3671218E0,2.011367E-1,1.0678444E-1,-8.940975E-2,-1.2890898E-1,-1.2953125E-1,-8.63364E-1,3.0968547E-2,-1.2520091E-1,-1.2605672E-1,-4.0299397E-2,1.3612925E0,2.0374496E-1,-1.36409E0,-4.008661E-1,-1.3873066E0,1.2454354E0,-1.2213296E0,1.9764597E0,3.121164E-2,-1.3568022E0,-1.2740452E0,6.8581617E-3,-7.4391204E-1,1.12125576E-1,1.0266411E-1,2.0276645E-1,6.806416E-1,1.8567059E0,2.0197362E-1,1.116673E0,2.171661E0,-1.1016569E-1,-9.784401E-1,2.106258E0,1.9868797E-1,1.4991143E0,2.0233236E-1,1.5036604E0,1.12173885E-1,1.0864552E0,-1.2909895E-1,-1.1140822E0,2.0860868E0,-1.1513316E-1,-1.2055241E0,-1.2946194E-1,-1.2535232E0,2.594434E-1,-1.2964272E-1,-1.3532894E0,4.8872246E-3,-1.2770447E-1,1.4678445E-1,8.818577E-2,-1.3664633E0,-4.0614012E-1,-1.2957032E-1,1.2655822E0,-1.3877207E0,2.955695E-1,-6.922786E-2,2.0047872E-1,-1.2863274E-1,-7.2189444E-1,2.0093057E-1,-3.1488553E-2,-1.3613923E0,-2.8955981E-2,-1.2955634E-1,-9.9559796E-1,-1.23427734E-1,-3.311945E-1,1.5250654E0,4.0174147E-1,2.0103545E-1,1.6172312E0,1.8079503E0,-1.3829654E-1,2.0293446E-1,1.2526676E-1,1.01807244E-1,-1.2801965E-1,1.4932072E0,2.1195397E0,1.6655733E-1,1.027261E0,4.418762E-2,2.0256606E-1,3.009161E-1,-3.3122554E-2,1.148361E0,8.1984514E-1,1.0116717E-3,-1.2755169E-1,1.980815E-1,1.385784E-1,-4.0887214E-2,-1.2646487E-1,-1.2956892E-1,-1.0357746E0,1.3188484E0,-1.2739477E-1,-8.7995034E-1,-1.3553237E0,-1.3707366E0,-1.1447114E0,-1.220418E-1,5.5932034E-2,2.0151246E-1,-1.2819794E-1,-1.2965135E-1,-8.366231E-2,-1.2304228E-1,1.8327147E-1,-1.252744E-1,-8.9036085E-4,-5.5576634E-2,-1.3651891E0,6.418131E-2,-1.27739E0,-4.4888996E-2,-1.1601871E-2,1.2957512E-1,1.7928255E-1,-3.2299533E-2,9.416256E-2,4.330585E-2,1.7752433E-1,1.0451574E-1,1.9956596E-1,-6.2857375E-2,2.0280229E-1,1.9293375E-1,2.029566E-1,1.3374816E-1,5.086406E-2,2.7969545E-3,6.215451E-2,7.264917E-2,1.1250705E-1,5.3528763E-2,1.1541493E-1,-7.3023667E-3,-1.15314625E-1,-1.09580986E-1,1.8403396E-1,-2.7780745E-2,-1.21688545E-1,-1.2531744E-1,-1.2975821E-1,-1.2963134E-1,-1.2452205E-1,-1.24599054E-1,7.720283E-2,-1.2928209E-1,-1.1889857E-1,-1.2800504E-1,-6.6321306E-2],"categories":[],"categories_nodes":[],"categories_segments":[],"categories_sizes":[],"default_left":[0,0,0,0,0,0,0,0,0,0,0,0,0,0,0,0,0,0,0,0,0,0,0,0,0,0,0,0,0,0,0,0,0,0,0,0,0,0,0,0,0,0,0,0,0,0,0,0,0,0,0,0,0,0,0,0,0,0,0,0,0,0,0,0,0,0,0,0,0,0,0,0,0,0,0,0,0,0,0,0,0,0,0,0,0,0,0,0,0,0,0,0,0,0,0,0,0,0,0,0,0,0,0,0,0,0,0,0,0,0,0,0,0,0,0,0,0,0,0,0,0,0,0,0,0,0,0,0,0,0,0,0,0,0,0,0,0,0,0,0,0,0,0,0,0,0,0,0,0,0,0,0,0,0,0,0,0,0,0,0,0,0,0,0,0,0,0,0,0,0,0,0,0,0,0,0,0,0,0,0,0,0,0,0,0,0,0,0,0,0,0,0,0,0,0,0,0,0,0,0,0,0,0,0,0,0,0,0,0,0,0,0,0,0,0,0,0,0,0,0,0,0,0,0,0,0,0,0,0,0,0,0,0,0,0,0,0,0,0,0,0,0,0,0,0,0,0,0,0,0,0,0,0,0,0,0,0,0,0,0,0,0,0,0,0,0,0,0,0,0,0,0,0,0,0,0,0,0,0,0,0,0,0,0,0,0,0,0,0,0,0,0,0,0,0,0,0,0,0,0,0,0,0,0,0,0,0,0,0,0,0,0,0,0,0,0,0,0,0,0,0,0,0,0,0,0,0,0,0,0,0,0,0,0,0,0,0,0,0,0,0,0,0,0,0,0,0,0,0,0,0,0,0,0,0,0,0,0,0,0,0,0,0,0,0,0,0,0,0,0,0,0,0,0,0,0,0,0,0,0,0,0,0,0,0,0,0,0,0,0,0,0,0,0,0,0,0,0,0,0,0],"id":2,"left_children":[1,3,5,7,9,-1,11,13,15,17,19,21,23,25,27,29,31,33,35,37,39,-1,41,43,-1,45,47,49,51,53,55,57,-1,59,61,63,65,67,-1,69,-1,-1,-1,-1,71,73,75,77,79,81,-1,83,85,-1,-1,-1,-1,87,89,91,93,95,97,99,101,103,105,-1,107,109,-1,-1,-1,-1,-1,-1,111,113,115,117,119,121,123,125,-1,-1,-1,127,-1,-1,-1,129,131,133,135,137,139,141,-1,143,145,147,149,151,-1,153,155,-1,157,-1,-1,-1,-1,159,161,163,165,167,169,-1,-1,171,-1,173,-1,-1,-1,175,-1,177,179,181,183,185,187,189,-1,191,193,195,-1,-1,-1,197,199,-1,201,203,205,-1,207,-1,-1,209,211,-1,-1,-1,-1,-1,213,215,-1,217,-1,219,-1,-1,221,223,-1,-1,-1,-1,225,227,-1,229,-1,231,233,-1,-1,235,-1,237,239,-1,241,-1,-1,-1,243,245,-1,-1,-1,247,249,251,-1,253,-1,255,257,259,261,263,-1,-1,-1,-1,-1,265,-1,267,-1,-1,-1,269,-1,-1,-1,-1,-1,271,-1,273,275,277,-1,279,-1,-1,-1,281,-1,283,285,-1,287,289,291,-1,-1,-1,-1,-1,293,-1,-1,-1,-1,295,-1,297,299,301,303,305,307,-1,309,311,-1,313,-1,-1,-1,315,317,-1,319,321,-1,323,325,-1,327,-1,329,331,333,-1,335,337,-1,339,-1,341,343,-1,345,-1,-1,-1,-1,347,349,-1,351,353,355,-1,-1,-1,357,-1,-1,359,-1,-1,361,-1,363,365,367,-1,369,371,-1,-1,-1,-1,-1,373,375,-1,377,-1,-1,379,-1,381,383,-1,-1,-1,-1,-1,-1,-1,385,387,-1,389,391,393,395,-1,-1,-1,-1,-1,-1,-1,-1,-1,-1,-1,397,-1,399,-1,-1,-1,-1,-1,-1,-1,-1,-1,-1,-1,-1,-1,-1,-1,-1,-1,-1,-1,-1,-1,-1,-1,-1,-1,-1,-1,-1,-1,-1,-1,-1,-1,-1,-1,-1,-1,-1],"loss_changes":[4.740364E5,1.0198803E5,1.775875E3,6.7228734E4,1.6504594E4,0E0,1.092625E3,5.865576E3,5.2346875E3,4.4153438E3,7.629257E3,4.375E-1,3.3433792E1,6.701504E2,7.621431E3,6.866703E2,3.6916562E3,1.2312738E4,2.1190312E3,5.3904785E1,1.5480146E3,0E0,5.6468735E0,8.0244446E-1,0E0,1.636123E2,1.0053867E3,1.5713921E3,9.853179E2,8.049377E0,1.7883301E-1,6.047578E2,0E0,2.0206406E3,5.89144E3,5.516719E2,8.728277E3,1.4888794E1,0E0,1.3834883E3,0E0,0E0,0E0,0E0,3.2223492E0,1.0094727E1,1.1717713E2,1.5409719E3,2.3582129E2,1.4078213E3,0E0,6.60896E1,9.999121E1,0E0,0E0,0E0,0E0,4.468125E2,2.4785497E2,4.8962197E3,6.3343555E2,1.1075503E3,8.919067E0,1.4617241E3,4.9514062E2,2.2408545E2,1.5955518E2,0E0,1.0170781E2,5.9442078E1,0E0,0E0,0E0,0E0,0E0,0E0,1.2116287E2,5.24551E2,1.01750024E3,6.7623535E1,4.7109188E1,1.8023265E2,1.0422852E1,2.2460365E1,0E0,0E0,0E0,1.9200781E2,0E0,0E0,0E0,3.214292E3,1.2307598E3,9.6171875E1,4.996183E2,5.846871E2,2.197793E2,1.5101292E1,0E0,1.8083618E1,3.717677E2,1.22546875E2,7.243491E2,9.273138E0,0E0,2.08833E1,1.9967642E2,0E0,5.2105865E0,0E0,0E0,0E0,0E0,4.1533203E0,7.746901E1,1.3392517E1,3.9112805E2,2.0683594E0,1.4145992E2,0E0,0E0,1.0253098E1,0E0,2.7617188E0,0E0,0E0,0E0,1.4616406E2,0E0,7.575526E2,3.222173E2,2.0957031E0,3.8449792E2,3.7454272E2,1.0830078E1,1.9863617E1,0E0,1.1168454E2,8.4511765E1,1.0206055E1,0E0,0E0,0E0,7.847412E0,1.7881302E1,0E0,1.0729437E2,6.89375E1,9.599199E2,0E0,1.0841083E2,0E0,0E0,5.0431374E1,1.0758789E1,0E0,0E0,0E0,0E0,0E0,5.3354736E1,1.4421921E1,0E0,2.3651428E0,0E0,1.4265784E2,0E0,0E0,1.2217197E1,7.099621E0,0E0,0E0,0E0,0E0,7.3876953E-1,6.738281E1,0E0,7.041096E2,0E0,1.43828125E1,2.774662E1,0E0,0E0,5.6961212E1,0E0,1.3569142E3,1.3825684E1,0E0,5.3001953E1,0E0,0E0,0E0,5.772339E0,1.0243835E0,0E0,0E0,0E0,5.45459E0,1.73246E1,4.16634E0,0E0,1.0611328E1,0E0,5.347451E2,2.0551562E2,5.296849E2,2.8231934E1,1.6160248E1,0E0,0E0,0E0,0E0,0E0,3.5802822E1,0E0,6.664215E0,0E0,0E0,0E0,1.3359659E2,0E0,0E0,0E0,0E0,0E0,5.1877686E1,0E0,1.4655469E2,7.813745E2,1.0928101E1,0E0,6.1328125E0,0E0,0E0,0E0,2.6435654E1,0E0,1.7102661E0,1.802279E2,0E0,1.2719727E-1,2.087478E2,5.1953125E-1,0E0,0E0,0E0,0E0,0E0,1.2466356E1,0E0,0E0,0E0,0E0,7.969208E-1,0E0,1.6480469E1,1.03027E3,7.525E1,5.4631382E1,5.4138565E0,5.848694E1,0E0,1.0340332E1,5.828186E0,0E0,7.5105534E0,0E0,0E0,0E0,7.121794E1,7.264038E0,0E0,1.02283104E2,4.7109375E0,0E0,7.121101E1,1.14921875E1,0E0,5.284691E0,0E0,1.4822052E1,3.0631638E0,2.2111053E0,0E0,1.4401741E1,9.589844E-1,0E0,5.6941376E0,0E0,5.2628906E1,1.6689977E2,0E0,3.246582E0,0E0,0E0,0E0,0E0,5.734375E0,1.8379923E1,0E0,5.504011E2,2.0625E0,7.440964E1,0E0,0E0,0E0,9.112003E0,0E0,0E0,5.751953E0,0E0,0E0,3.258902E1,0E0,5.424752E-1,1.8976898E0,1.04654366E2,0E0,2.5928131E1,8.059723E0,0E0,0E0,0E0,0E0,0E0,5.8828087E1,1.2592773E0,0E0,3.3772182E0,0E0,0E0,2.3666215E0,0E0,2.2294617E0,3.2034988E0,0E0,0E0,0E0,0E0,0E0,0E0,0E0,1.3437628E2,9.692417E1,0E0,4.841263E0,5.029297E-1,3.100586E0,5.523105E1,0E0,0E0,0E0,0E0,0E0,0E0,0E0,0E0,0E0,0E0,0E0,2.3354492E0,0E0,2.1738052E0,0E0,0E0,0E0,0E0,0E0,0E0,0E0,0E0,0E0,0E0,0E0,0E0,0E0,0E0,0E0,0E0,0E0,0E0,0E0,0E0,0E0,0E0,0E0,0E0,0E0,0E0,0E0,0E0,0E0,0E0,0E0,0E0,0E0,0E0,0E0,0E0,0E0,0E0],"parents":[2147483647,0,0,1,1,2,2,3,3,4,4,6,6,7,7,8,8,9,9,10,10,11,11,12,12,13,13,14,14,15,15,16,16,17,17,18,18,19,19,20,20,22,22,23,23,25,25,26,26,27,27,28,28,29,29,30,30,31,31,33,33,34,34,35,35,36,36,37,37,39,39,44,44,45,45,46,46,47,47,48,48,49,49,51,51,52,52,57,57,58,58,59,59,60,60,61,61,62,62,63,63,64,64,65,65,66,66,68,68,69,69,76,76,77,77,78,78,79,79,80,80,81,81,82,82,83,83,87,87,91,91,92,92,93,93,94,94,95,95,96,96,97,97,99,99,100,100,101,101,102,102,103,103,105,105,106,106,108,108,113,113,114,114,115,115,116,116,117,117,118,118,121,121,123,123,127,127,129,129,130,130,131,131,132,132,133,133,134,134,135,135,137,137,138,138,139,139,143,143,144,144,146,146,147,147,148,148,150,150,153,153,154,154,160,160,161,161,163,163,165,165,168,168,169,169,174,174,175,175,177,177,179,179,180,180,183,183,185,185,186,186,188,188,192,192,193,193,197,197,198,198,199,199,201,201,203,203,204,204,205,205,206,206,207,207,213,213,215,215,219,219,225,225,227,227,228,228,229,229,231,231,235,235,237,237,238,238,240,240,241,241,242,242,248,248,253,253,255,255,256,256,257,257,258,258,259,259,260,260,262,262,263,263,265,265,269,269,270,270,272,272,273,273,275,275,276,276,278,278,280,280,281,281,282,282,284,284,285,285,287,287,289,289,290,290,292,292,297,297,298,298,300,300,301,301,302,302,306,306,309,309,312,312,314,314,315,315,316,316,318,318,319,319,325,325,326,326,328,328,331,331,333,333,334,334,342,342,343,343,345,345,346,346,347,347,348,348,360,360,362,362],"right_children":[2,4,6,8,10,-1,12,14,16,18,20,22,24,26,28,30,32,34,36,38,40,-1,42,44,-1,46,48,50,52,54,56,58,-1,60,62,64,66,68,-1,70,-1,-1,-1,-1,72,74,76,78,80,82,-1,84,86,-1,-1,-1,-1,88,90,92,94,96,98,100,102,104,106,-1,108,110,-1,-1,-1,-1,-1,-1,112,114,116,118,120,122,124,126,-1,-1,-1,128,-1,-1,-1,130,132,134,136,138,140,142,-1,144,146,148,150,152,-1,154,156,-1,158,-1,-1,-1,-1,160,162,164,166,168,170,-1,-1,172,-1,174,-1,-1,-1,176,-1,178,180,182,184,186,188,190,-1,192,194,196,-1,-1,-1,198,200,-1,202,204,206,-1,208,-1,-1,210,212,-1,-1,-1,-1,-1,214,216,-1,218,-1,220,-1,-1,222,224,-1,-1,-1,-1,226,228,-1,230,-1,232,234,-1,-1,236,-1,238,240,-1,242,-1,-1,-1,244,246,-1,-1,-1,248,250,252,-1,254,-1,256,258,260,262,264,-1,-1,-1,-1,-1,266,-1,268,-1,-1,-1,270,-1,-1,-1,-1,-1,272,-1,274,276,278,-1,280,-1,-1,-1,282,-1,284,286,-1,288,290,292,-1,-1,-1,-1,-1,294,-1,-1,-1,-1,296,-1,298,300,302,304,306,308,-1,310,312,-1,314,-1,-1,-1,316,318,-1,320,322,-1,324,326,-1,328,-1,330,332,334,-1,336,338,-1,340,-1,342,344,-1,346,-1,-1,-1,-1,348,350,-1,352,354,356,-1,-1,-1,358,-1,-1,360,-1,-1,362,-1,364,366,368,-1,370,372,-1,-1,-1,-1,-1,374,376,-1,378,-1,-1,380,-1,382,384,-1,-1,-1,-1,-1,-1,-1,386,388,-1,390,392,394,396,-1,-1,-1,-1,-1,-1,-1,-1,-1,-1,-1,398,-1,400,-1,-1,-1,-1,-1,-1,-1,-1,-1,-1,-1,-1,-1,-1,-1,-1,-1,-1,-1,-1,-1,-1,-1,-1,-1,-1,-1,-1,-1,-1,-1,-1,-1,-1,-1,-1,-1,-1],"split_conditions":[1.4006622E0,-7.6210566E-2,7.033898E-1,2E-1,1E0,-1.2806217E-1,7.711864E-1,4.9974993E-2,-4.8822165E-4,-5.366814E-1,-2.5917112E-3,7.457627E-1,1.0087349E1,8.3333336E-2,1.764706E-1,1E0,3.7469792E0,-1.2758872E-1,5.672727E0,4.7457626E-1,7.457627E-1,2.0301533E-1,1.8715179E0,5.961487E-1,5.4433614E-2,1E0,6.590992E-3,3.7469792E0,2.6764705E0,1.3033496E0,1.0793049E1,8.3829385E-1,-1.2949224E-1,1E0,-2.2222223E-2,-3.856502E-2,2.59365E-1,1.5790893E-1,4.9674176E-2,7.372881E-1,-1.2914428E-1,9.3854055E-2,1.9615534E-1,-1.274517E-1,2.7083334E-1,1.50363E-1,-4.2688516E-3,-4.8822165E-4,1E0,7.5E-1,-1.2922272E-1,-1.2803917E-1,-2.1969974E-3,-1.288956E-1,-5.819811E-2,1.4176436E-1,2.0413485E-1,2.8169014E-2,-1.0842457E-1,4.5474575E1,1E0,-6.9508517E-1,-8.255942E-2,5.138083E-2,1.2197503E0,1.4696498E-1,3.542373E0,-1.2968898E-1,-3.7259187E-3,-1.9393939E-1,2.0291527E-1,-1.246279E-1,-4.4649664E-2,-1.2971976E-1,-4.654821E-2,-1.2703016E-1,-3.8548894E-3,1E0,1.8507273E1,1.8522611E4,1E0,1.168088E-2,-1.9205814E-2,1.9495084E0,-1.2880118E-1,2.0648259E-1,-1.0646706E-1,1.8522611E4,-1.2923248E-1,1.991577E-1,-1.2726809E-1,-2.586347E-3,-1.9205814E-2,0E0,-2.4411082E-3,-4.8822165E-4,8.450704E-2,2.3812114E3,-1.2932338E-1,2.2058823E0,1.2171366E0,9.208867E-1,1.037471E-2,3.3651108E-1,2.0304556E-1,4.7331083E-1,1.3248585E-1,1.751517E-1,-5.96962E-4,9.008897E-2,-1.2945546E-1,1.9795085E-1,-1.2338939E-1,-3.4175515E-3,-2.4411082E-3,3.0818333E3,-2.1084337E-1,3.0818333E3,2.7340412E-2,-3.3706136E-2,1.9800721E-1,6.3127583E-1,1.7484751E-1,1.2962963E-1,1.0994692E-1,1.3817406E-1,-5.681789E-2,1E0,-1.14541136E-1,0E0,2E-1,-1.3025559E-5,1.2407408E1,7.79661E-1,-2.1969974E-3,-2.4228138E-3,-1.2853697E-1,3.0624316E-4,8.8831383E-1,1.04737826E-1,-1.247683E-1,2.63956E-2,-1.2670103E-1,8.459102E-3,3.2650602E0,-1.23777986E-1,9.936508E-1,-5.4037027E-2,4.6370405E-1,2.0207663E-1,1E0,-6.341338E-3,-1.2575434E-1,1.2669492E0,4.5416665E0,-1.2763904E-1,1.97086E-1,-5.289483E-2,-1.2944026E-1,-1.2917253E-1,-2.4411082E-3,-4.1734898E-3,-8.69168E-2,-2.4411082E-4,-3.0005679E-2,-6.5789476E-2,-1.2834439E-1,-1.2906508E-1,2.1221392E-2,1.7087758E-2,-1.2845527E-1,-1.2805888E-1,-2.5336763E-2,1.2869848E-1,7.477259E-1,3.539607E-3,-1.22159325E-1,-4.255956E-3,-1.295294E-1,4E-1,9.375E-1,-7.213068E-2,-1.2966889E-1,7.971017E3,-1.2778053E-1,7.118644E-1,-5.969817E-4,-1.2963079E-1,7.3233247E-4,5.3473342E-2,2.0217499E-1,-1.21941656E-1,-5.969817E-4,-2.4242425E-1,9.302951E-2,2.0252185E-1,1.0522922E-1,1.3645833E1,6.949073E-2,1E0,5.5236004E-2,5.936508E-1,-1.22412995E-1,-5.5490937E-2,1E0,5.3939396E-1,1E0,1.0400667E0,1.918932E-1,1.1928501E-1,-1.2839943E-1,-1.2969086E-1,-2.8161855E-2,1E0,-1.2475203E-1,-5.6808436E-4,6.220769E-2,-7.084329E-2,-1.2831372E-1,-1.6211297E-2,1.9246967E-1,-3.890721E-3,-1.2704825E-1,7.756876E-2,1.9380933E-1,1.8522611E4,2.030904E-1,-1.1746988E-1,1.91E0,5.882353E-2,-1.2894607E-1,1.7067797E1,8.213263E-2,-1.24457315E-1,5.565489E-2,5.920739E-3,2.0065793E-1,2.9411765E-2,1E0,-3.1873737E-2,8.0932206E-1,4.8822165E-4,1.1266259E2,2.011367E-1,1.0678444E-1,-8.940975E-2,-1.2890898E-1,-1.2953125E-1,4.0395832E1,3.0968547E-2,-1.2520091E-1,-1.2605672E-1,-4.0299397E-2,1.0169491E-1,2.0374496E-1,5.2E0,7.457627E-1,6.2256067E2,8.438211E1,8.3333336E-2,1.2E0,3.121164E-2,3.7002605E3,1.2155188E0,6.8581617E-3,5.1271186E0,1.12125576E-1,1.0266411E-1,2.0276645E-1,-3.6616623E-4,-3.6616623E-4,2.0197362E-1,2.7340412E-2,8.677966E0,-1.1016569E-1,6.590992E-3,2.6899433E0,1.9868797E-1,2.4420569E2,2.0233236E-1,2.776447E0,-1.2658406E-3,9.685185E0,-1.2909895E-1,-4.259347E-3,0E0,-1.1513316E-1,-1.112848E-2,-1.2946194E-1,8.154833E1,8.8135594E-1,-1.2964272E-1,2.3190528E-3,4.8872246E-3,-1.2770447E-1,1.4678445E-1,8.818577E-2,1.911087E2,2.7945676E0,-1.2957032E-1,-8.478242E-3,1.6585757E0,1E0,-6.922786E-2,2.0047872E-1,-1.2863274E-1,7.033898E-1,2.0093057E-1,-3.1488553E-2,-5.941586E-4,-2.8955981E-2,-1.2955634E-1,1.2380953E0,-1.23427734E-1,-3.9303335E-3,1.2545657E2,1.3426095E-3,2.0103545E-1,1.3426095E-3,1.7087758E-2,-1.3829654E-1,2.0293446E-1,1.2526676E-1,1.01807244E-1,-1.2801965E-1,2.2649374E0,5.3333336E-1,1.6655733E-1,4.074074E-1,4.418762E-2,2.0256606E-1,-1.308699E-3,-3.3122554E-2,1.0356208E4,-5.245944E-4,1.0116717E-3,-1.2755169E-1,1.980815E-1,1.385784E-1,-4.0887214E-2,-1.2646487E-1,-1.2956892E-1,-1.5867203E-3,7.881356E-1,-1.2739477E-1,1.4152542E0,6.925848E1,-9.862445E-3,1.4814814E0,-1.220418E-1,5.5932034E-2,2.0151246E-1,-1.2819794E-1,-1.2965135E-1,-8.366231E-2,-1.2304228E-1,1.8327147E-1,-1.252744E-1,-8.9036085E-4,-5.5576634E-2,1.2962963E-1,6.418131E-2,2.0686253E1,-4.4888996E-2,-1.1601871E-2,1.2957512E-1,1.7928255E-1,-3.2299533E-2,9.416256E-2,4.330585E-2,1.7752433E-1,1.0451574E-1,1.9956596E-1,-6.2857375E-2,2.0280229E-1,1.9293375E-1,2.029566E-1,1.3374816E-1,5.086406E-2,2.7969545E-3,6.215451E-2,7.264917E-2,1.1250705E-1,5.3528763E-2,1.1541493E-1,-7.3023667E-3,-1.15314625E-1,-1.09580986E-1,1.8403396E-1,-2.7780745E-2,-1.21688545E-1,-1.2531744E-1,-1.2975821E-1,-1.2963134E-1,-1.2452205E-1,-1.24599054E-1,7.720283E-2,-1.2928209E-1,-1.1889857E-1,-1.2800504E-1,-6.6321306E-2],"split_indices":[13,37,66,2,43,0,66,1,65,8,21,66,4,68,38,43,65,52,35,24,66,0,9,52,0,43,65,65,38,21,69,14,0,47,6,10,5,26,0,66,0,0,0,0,29,17,1,65,46,68,0,52,65,0,0,0,0,11,40,24,30,8,14,22,13,13,24,0,1,35,0,0,0,0,0,0,1,48,36,19,47,9,5,16,0,0,0,19,0,0,0,21,5,51,65,65,11,74,0,7,65,13,65,21,0,5,14,0,20,0,0,0,0,65,65,19,4,19,65,0,0,73,0,19,0,0,0,48,0,3,3,20,19,66,65,42,0,14,12,9,0,0,0,20,4,0,6,12,39,0,51,0,0,66,29,0,0,0,0,0,65,1,0,65,0,34,0,0,23,65,0,0,0,0,73,65,0,1,0,2,29,0,0,24,0,66,20,0,65,0,0,0,20,35,0,0,0,29,18,19,0,6,0,12,48,35,46,73,0,0,0,0,0,30,0,20,0,0,0,18,0,0,0,0,0,19,0,4,75,38,0,24,0,0,0,27,0,38,48,0,66,65,36,0,0,0,0,0,29,0,0,0,0,24,0,3,66,14,14,68,2,0,69,9,0,24,0,0,0,65,65,0,65,24,0,65,22,0,37,0,72,22,19,0,1,67,0,17,0,36,66,0,65,0,0,0,0,14,9,0,5,40,47,0,0,0,66,0,0,23,0,0,6,0,1,15,65,0,65,65,0,0,0,0,0,8,6,0,19,0,0,22,0,29,22,0,0,0,0,0,0,0,65,66,0,66,66,5,19,0,0,0,0,0,0,0,0,0,0,0,19,0,26,0,0,0,0,0,0,0,0,0,0,0,0,0,0,0,0,0,0,0,0,0,0,0,0,0,0,0,0,0,0,0,0,0,0,0,0,0,0],"split_type":[0,0,0,0,0,0,0,0,0,0,0,0,0,0,0,0,0,0,0,0,0,0,0,0,0,0,0,0,0,0,0,0,0,0,0,0,0,0,0,0,0,0,0,0,0,0,0,0,0,0,0,0,0,0,0,0,0,0,0,0,0,0,0,0,0,0,0,0,0,0,0,0,0,0,0,0,0,0,0,0,0,0,0,0,0,0,0,0,0,0,0,0,0,0,0,0,0,0,0,0,0,0,0,0,0,0,0,0,0,0,0,0,0,0,0,0,0,0,0,0,0,0,0,0,0,0,0,0,0,0,0,0,0,0,0,0,0,0,0,0,0,0,0,0,0,0,0,0,0,0,0,0,0,0,0,0,0,0,0,0,0,0,0,0,0,0,0,0,0,0,0,0,0,0,0,0,0,0,0,0,0,0,0,0,0,0,0,0,0,0,0,0,0,0,0,0,0,0,0,0,0,0,0,0,0,0,0,0,0,0,0,0,0,0,0,0,0,0,0,0,0,0,0,0,0,0,0,0,0,0,0,0,0,0,0,0,0,0,0,0,0,0,0,0,0,0,0,0,0,0,0,0,0,0,0,0,0,0,0,0,0,0,0,0,0,0,0,0,0,0,0,0,0,0,0,0,0,0,0,0,0,0,0,0,0,0,0,0,0,0,0,0,0,0,0,0,0,0,0,0,0,0,0,0,0,0,0,0,0,0,0,0,0,0,0,0,0,0,0,0,0,0,0,0,0,0,0,0,0,0,0,0,0,0,0,0,0,0,0,0,0,0,0,0,0,0,0,0,0,0,0,0,0,0,0,0,0,0,0,0,0,0,0,0,0,0,0,0,0,0,0,0,0,0,0,0,0,0,0,0,0,0,0,0,0,0,0,0,0,0,0,0,0,0,0,0,0,0,0,0,0],"sum_hessian":[2.6048306E5,1.8892292E5,7.156015E4,3.460192E4,1.54321E5,1.415917E2,7.141856E4,1.5797622E4,1.88043E4,1.5060855E5,3.71245E3,7.131678E4,1.0177419E2,1.1855345E4,3.942277E3,5.8413617E2,1.8220164E4,2.651149E4,1.24097055E5,1.1083187E3,2.604131E3,7.128574E4,3.1042715E1,9.1615074E1,1.0159112E1,7.250453E3,4.604892E3,2.0129861E3,1.9292909E3,5.205924E2,6.354374E1,1.7915486E4,3.0467838E2,2.3535154E4,2.9763347E3,1.1940722E5,4.6898325E3,1.0932781E3,1.5040667E1,2.4610264E3,1.4310475E2,9.182455E0,2.186026E1,7.0321785E1,2.1293293E1,7.17021E3,8.024293E1,2.1104834E3,2.4944087E3,1.8499149E3,1.6307112E2,1.8310774E3,9.821359E1,5.0396976E2,1.6622654E1,9.092561E0,5.445118E1,1.7817906E4,9.75802E1,5.847018E3,1.7688137E4,2.2116274E3,7.647074E2,1.0444012E3,1.1836282E5,9.1418616E2,3.7756462E3,9.8633905E2,1.0693901E2,1.2980482E2,2.3312217E3,1.2244965E1,9.048328E0,7.1561216E3,1.40883045E1,3.356766E1,4.6675262E1,1.1758914E3,9.3459204E2,2.4609727E3,3.343602E1,1.6669302E2,1.6832219E3,1.9247255E1,1.8118301E3,8.879646E1,9.417133E0,1.778237E4,3.5535877E1,2.7788261E1,6.979194E1,1.7531161E3,4.0939019E3,1.7512324E4,1.758125E2,2.9074405E2,1.9208833E3,2.2077497E1,7.426299E2,7.8711053E2,2.572908E2,1.1802539E5,3.3742868E2,2.4276897E1,8.8990924E2,3.7102927E3,6.535369E1,1.0580111E1,9.6358894E1,1.1282154E1,1.18522675E2,3.248036E1,1.4194904E1,1.098175E3,7.771633E1,2.2213109E2,7.1246094E2,2.3917275E3,6.924515E1,1.1108859E1,2.2327162E1,1.4697873E2,1.9714294E1,1.6684161E3,1.4805842E1,9.801169E0,9.446085E0,1.7765926E4,1.6444262E1,8.0210406E2,9.5101196E2,3.7515378E3,3.4236392E2,2.5705796E3,1.4941745E4,1.014966E2,7.43159E1,1.1603098E2,1.7471307E2,1.9032223E3,1.7660992E1,9.018437E0,1.3059061E1,7.5447504E2,3.2635498E1,4.0782974E1,2.1650781E2,1.15549484E5,2.47591E3,9.534306E1,2.4208562E2,9.19642E0,1.5080477E1,3.1955044E1,3.6783376E3,3.609525E1,2.925844E1,1.0446939E1,8.591196E1,5.625135E2,5.3566156E2,6.5782455E1,1.1933875E1,2.0777414E2,1.4356945E1,6.5715784E2,5.5303066E1,2.3489084E3,4.2819096E1,2.3130377E1,4.611477E1,1.3731116E2,9.6675625E0,1.0485056E1,1.657931E3,1.775415E4,1.1775671E1,2.6826312E2,5.3384094E2,9.1348846E2,3.7523537E1,9.102219E0,3.7424355E3,2.6551523E2,7.68487E1,7.0284326E2,1.8677363E3,5.584432E3,9.3573125E3,9.404583E0,9.209201E1,1.0252018E1,1.0577896E2,1.5818791E2,1.6525152E1,1.8909966E3,1.2225722E1,7.283277E2,2.6147331E1,2.3604078E1,9.031421E0,2.0732416E2,9.18365E0,8.113803E3,1.0743568E5,2.2310555E2,2.2528042E3,2.3217824E2,9.907373E0,9.754435E0,2.2200611E1,3.668554E3,9.783622E0,4.518519E1,4.904764E2,5.4910168E1,1.0872292E1,1.013381E1,1.9764034E2,4.463932E2,2.1076466E2,9.048958E0,3.3770138E1,9.324148E0,1.3806229E1,5.936827E2,1.0642484E3,1.5939097E4,1.815053E3,1.6562949E2,1.0263363E2,9.029147E2,1.0573791E1,2.7980934E1,9.5426035E0,2.1760133E2,4.7913887E1,5.1416974E2,1.886735E2,1.36451235E1,1.8540912E3,1.9497456E3,7.4075674E3,9.654889E1,9.230076E0,1.5108244E1,1.4307967E2,7.0236334E2,2.596436E1,9.021502E0,1.712583E1,1.4371378E1,9.232699E0,2.3010052E1,1.8431412E2,7.488322E3,6.254812E2,1.0740657E5,2.9104113E1,8.045509E1,1.4265045E2,9.581025E0,2.2432234E3,2.2310722E2,9.071024E0,3.2694942E1,1.2490243E1,9.824544E0,4.508562E1,3.0422598E2,1.421672E2,5.3853455E2,5.5148083E1,1.5926488E4,1.2608878E1,8.576867E1,1.7292843E3,1.1522944E2,5.0400055E1,8.806023E2,2.2312336E1,3.3214493E1,1.8438684E2,4.6436234E2,4.9807415E1,1.7109044E2,1.7583048E1,5.438993E1,1.7997013E3,1.854168E3,9.557764E1,2.9473584E3,4.460209E3,9.386864E0,1.6577496E1,1.38435955E1,9.166457E0,7.469422E3,1.8900055E1,3.9307007E2,2.3241115E2,1.0738033E5,2.6247713E1,9.09017E0,2.0013943E1,6.025033E1,2.0204765E1,1.3273683E2,9.913608E0,2.233136E3,1.0087209E1,1.5654886E2,6.6558365E1,1.2881268E1,1.9813677E1,7.465459E1,2.2957141E2,6.092596E1,8.124125E1,4.375371E1,1.1394368E1,1.5914922E4,1.1565957E1,1.3423285E1,7.234538E1,3.854935E1,1.6907349E3,3.0106098E1,2.0293957E1,9.282896E0,1.302944E1,2.3957716E1,9.256777E0,1.4744215E2,3.6944683E1,9.160949E0,4.0646465E1,1.600527E2,1.1037742E1,9.350063E0,4.5039867E1,1.1472072E3,7.069608E2,5.7943283E1,3.7634357E1,2.0607027E1,4.4396016E3,7.324146E3,1.4527592E2,9.896507E0,9.003547E0,1.7383147E2,5.857968E1,1.0736584E5,1.4484666E1,1.3390963E1,1.28567505E1,1.0406342E1,9.798424E0,1.1677369E1,2.2214587E3,9.356594E0,5.720177E1,1.0726061E1,9.087616E0,5.7864277E1,1.6790306E1,1.0288353E2,1.26687874E2,1.6436289E1,6.4804955E1,1.5227864E1,2.8525848E1,9.158314E0,2.9391037E1,8.487161E2,8.4201874E2,1.0175016E1,1.011894E1,1.43187065E1,9.639009E0,2.0932121E1,1.2651003E2,2.4383572E1,1.25611105E1,1.21650085E2,5.853107E2,1.1856432E1,4.608685E1,9.265061E0,1.1341965E1,3.1609822E3,1.2786195E3,5.0508765E3,2.2732695E3,1.3281755E2,1.2458384E1,1.8397458E3,3.817128E2,4.8157894E1,9.043875E0],"tree_param":{"num_deleted":"0","num_feature":"77","num_nodes":"401","size_leaf_vector":"1"}},{"base_weights":[-3.204517E-2,-8.254498E-1,1.9477478E0,6.3529956E-1,-1.1639384E0,-1.24089E-1,1.9534978E0,-8.015869E-1,1.7786704E0,-1.2144512E0,8.154359E-1,1.957294E0,-1.01877E0,-1.1391122E0,2.0397787E-1,-9.1906065E-1,1.8608717E0,-8.4944737E-1,-1.2933329E0,-1.2743431E0,1.6468658E0,1.8287595E-1,1.5078837E0,-1.2555505E0,7.147875E-2,-1.3238101E0,-8.571694E-1,1.4194155E0,-1.1291943E0,-1.2961932E0,1.8261778E-1,1.9119792E0,-1.2506156E-1,-1.0833476E0,9.244031E-1,-1.318205E0,-6.66747E-1,-1.2945635E0,8.7533586E-2,1.8030839E0,-1.24678716E-1,3.97443E-2,1.7796817E-1,-1.2308338E-1,-8.483168E-2,-1.3395729E0,1.2977967E-1,-3.6723715E-1,-1.2746997E0,1.6650655E0,-1.248194E-1,-1.3064911E0,1.7815517E0,-1.3138092E0,-3.2868396E-2,1.9232527E0,-4.0388384E-1,-5.827384E-1,-1.2512724E0,1.6782522E0,-1.3240558E0,-6.208827E-1,-1.3244628E0,1.8793627E0,-1.308293E0,-1.24955684E-1,-9.1043895E-1,-1.1773455E0,1.8265194E-1,-1.2521556E-1,-8.287972E-2,-1.2233448E-1,1.1041018E0,-1.0897499E0,5.246658E-1,-1.3056567E0,1.5603783E0,-8.8960516E-1,1.910985E0,4.114255E-1,-1.3261638E0,1.825058E-1,1.6026022E0,-1.2413476E-1,-9.371419E-1,1.9293585E0,-1.24093935E-1,1.7888077E-1,-1.2263484E-1,7.5076294E-1,-1.1724153E0,-1.2708628E0,6.1309344E-1,-9.927703E-3,1.9191475E0,-7.83761E-1,-1.2489529E-1,-1.2828003E0,1.2944766E0,-1.3276635E0,-2.4203202E-1,-8.960507E-1,1.828619E-1,-1.3345461E0,1.0762427E-1,9.172464E-1,-1.247306E-1,4.2126328E-2,-1.24539115E-1,1.7670342E-1,-1.1731362E-1,-1.2697579E0,1.233264E0,1.0514287E0,-1.1997672E0,-1.24366134E-1,-3.8047215E-1,9.322514E-2,1.693847E-1,1.5453129E0,-1.2481825E0,1.9194185E0,9.7198494E-2,-7.279424E-2,1.4360987E-1,-1.2434724E-1,-3.9435536E-2,1.7858207E-1,1.3625164E-1,-4.2770483E-2,-1.1849188E-1,1.932861E0,-1.0768831E0,1.6266954E0,-9.440403E-1,-1.33942E0,5.7022136E-1,-1.0939507E0,-1.3010572E0,1.8319327E0,-1.2403733E-1,1.5770136E0,-1.1231207E0,1.9466172E0,-1.2011368E-1,-1.6884468E-2,-1.22060254E-1,-5.4859275E-1,-1.3103675E0,-1.2936461E-1,1.7633313E0,-1.3324759E0,-1.105477E0,1.8080874E-1,-1.012521E0,-1.2228471E-1,-1.4333302E-2,-6.53683E-1,-1.3400859E0,-1.20572835E-1,1.767996E-1,-3.672095E-3,1.6081262E-1,-1.2502876E-1,-1.1940223E0,1.7058021E0,-1.8388341E-1,1.2468392E0,-1.2392999E-1,-1.2819225E0,4.0389743E-2,1.4131911E-1,-1.2404596E-1,9.163116E-2,1.787664E-1,-6.2353605E-1,-1.2535557E-1,1.9235421E0,1.11397065E-1,1.9540205E0,1.7489929E0,-1.18433215E-1,-7.4248925E-2,1.8973671E0,-1.23511285E-1,-1.2749951E0,1.7301951E-1,-8.11113E-2,-1.2523468E-1,1.0759367E0,-1.22025125E-1,-4.7519216E-1,-1.3236264E0,-1.252497E-1,-1.2771912E0,4.77583E-2,1.8207061E-1,-1.1214887E-1,1.9043993E0,-1.2925575E0,6.222627E-2,1.8241797E-1,8.130993E-2,-1.2094243E-1,7.9091094E-2,-1.32363E0,-4.899007E-2,1.8186565E-1,-1.3015434E-1,-1.2443011E0,-1.3391637E0,7.943972E-1,-1.295947E0,-1.1311803E0,1.725707E-1,7.511559E-2,-1.2419743E-1,-7.113672E-2,-1.2532382E-1,1.284993E-1,-1.2062994E-1,7.584209E-2,1.7828205E-1,-5.7281345E-2,1.6666291E-2,9.5833427E-1,1.7649804E-1,-6.3015625E-2,-1.22909546E-1,1.505746E-2,-1.2204904E-1,1.8632681E0,1.82938E-1,1.9564321E0,-8.120826E-2,-9.584668E-1,1.8886398E0,1.9143025E0,3.696281E-2,-1.2544379E-1,1.1899331E-1,8.957844E-1,1.8071057E-1,-1.2951418E0,1.55663E0,-4.78432E-2,-1.3305191E0,-1.1292375E0,-1.3160064E0,1.8211122E-1,1.2412495E-1,-7.991188E-2,-1.2572905E-1,-1.3355271E0,-9.9784833E-1,-1.3169662E0,-3.6758557E-1,-1.3398734E0,1.138285E0,-1.1460074E0,1.7803214E0,6.530044E-2,-1.3055475E0,-1.2134628E0,-2.4178654E-3,-6.3209665E-1,1.5374419E-1,6.4880633E-1,1.7223045E0,1.814648E-1,1.2493033E0,1.8281808E-1,1.1935899E-1,7.755853E-2,-1.2364347E-1,1.1604755E0,1.9064709E0,1.5591581E0,1.9454658E0,1.9694167E-1,-1.212007E-1,3.0529737E-1,9.7578466E-1,-6.2354356E-2,-1.3081223E0,1.8225334E0,-1.1539466E-1,-1.0665953E0,-1.3387913E0,-1.2099853E0,3.0475163E-1,-1.23927005E-1,-1.2719202E0,-8.527943E-2,-1.2531061E-1,-1.24334686E-1,-2.642675E-2,-1.3188636E0,-3.7403658E-2,-1.2486914E-1,1.1344589E0,-1.3403033E0,2.0406115E-1,-4.943002E-2,1.7882755E-1,-1.9785255E-2,-1.2783276E0,1.9302462E0,-2.6213184E-2,-5.2624013E-2,-1.3103435E0,-3.2457897E-1,-1.3039494E0,-7.08559E-2,-3.8773227E-2,1.3897865E0,3.8717172E-1,1.8194689E-1,1.5257173E0,1.710717E0,-1.3076662E-1,-1.2329884E-1,1.8621156E-1,1.8169962E-1,1.8411789E0,1.8218414E-1,1.3130776E0,1.8241413E-1,1.0565693E-1,3.8184922E-2,7.294954E-3,5.889733E-2,1.0129015E0,-1.23660475E-1,-9.445018E-1,1.2984954E0,1.814205E-1,-1.1693909E-1,-1.4123076E-2,-8.764478E-2,-1.2523931E-1,-1.2504032E-1,-1.0092369E0,1.343199E0,-1.2313038E-1,-1.2356454E0,-1.251721E-1,-1.0949398E0,-1.3240569E0,1.8045102E-1,-1.2379528E-1,-1.3403754E0,-9.3391156E-1,-1.19617574E-1,1.7236035E-1,-1.2495157E-1,-7.922597E-2,1.8348691E-1,1.2656127E-1,-1.247425E-1,-1.1913418E0,-1.211276E-1,5.2024405E-2,-8.565165E-2,-1.24744974E-1,1.6057779E-1,1.20108604E-1,-2.5214847E-2,8.704982E-2,-6.577878E-3,1.6618797E-1,1.7355308E-1,8.6307645E-2,1.6252401E-1,1.8261024E-1,1.6013236E-1,9.040016E-2,1.1237153E-1,8.774904E-2,-4.9013607E-2,-1.17583364E-1,1.6117369E-1,2.1470385E-2,-1.5686715E-2,-1.1169411E-1,-8.153717E-2,1.6446762E-1,-1.1719239E-1,-9.545273E-2,-1.2375172E-1,1.5686336E-1,-1.2537305E-1,-1.1996343E-1,-1.2537046E-1,-1.2431326E-1,-4.2759504E-2,-1.1889542E-1,-5.478872E-2,-1.2353494E-1],"categories":[],"categories_nodes":[],"categories_segments":[],"categories_sizes":[],"default_left":[0,0,0,0,0,0,0,0,0,0,0,0,0,0,0,0,0,0,0,0,0,0,0,0,0,0,0,0,0,0,0,0,0,0,0,0,0,0,0,0,0,0,0,0,0,0,0,0,0,0,0,0,0,0,0,0,0,0,0,0,0,0,0,0,0,0,0,0,0,0,0,0,0,0,0,0,0,0,0,0,0,0,0,0,0,0,0,0,0,0,0,0,0,0,0,0,0,0,0,0,0,0,0,0,0,0,0,0,0,0,0,0,0,0,0,0,0,0,0,0,0,0,0,0,0,0,0,0,0,0,0,0,0,0,0,0,0,0,0,0,0,0,0,0,0,0,0,0,0,0,0,0,0,0,0,0,0,0,0,0,0,0,0,0,0,0,0,0,0,0,0,0,0,0,0,0,0,0,0,0,0,0,0,0,0,0,0,0,0,0,0,0,0,0,0,0,0,0,0,0,0,0,0,0,0,0,0,0,0,0,0,0,0,0,0,0,0,0,0,0,0,0,0,0,0,0,0,0,0,0,0,0,0,0,0,0,0,0,0,0,0,0,0,0,0,0,0,0,0,0,0,0,0,0,0,0,0,0,0,0,0,0,0,0,0,0,0,0,0,0,0,0,0,0,0,0,0,0,0,0,0,0,0,0,0,0,0,0,0,0,0,0,0,0,0,0,0,0,0,0,0,0,0,0,0,0,0,0,0,0,0,0,0,0,0,0,0,0,0,0,0,0,0,0,0,0,0,0,0,0,0,0,0,0,0,0,0,0,0,0,0,0,0,0,0,0,0,0,0,0,0,0,0,0,0,0,0,0,0,0,0,0,0,0,0,0,0,0,0,0,0,0,0,0,0,0,0,0,0,0,0,0,0,0,0,0,0,0,0,0,0,0,0,0,0,0,0,0,0],"id":3,"left_children":[1,3,5,7,9,-1,11,13,15,17,19,21,23,25,27,29,31,33,35,37,39,-1,41,43,-1,45,47,49,51,53,-1,55,-1,57,59,61,63,65,-1,67,-1,-1,-1,-1,-1,69,71,73,75,77,-1,79,81,83,-1,85,87,89,91,93,95,97,99,101,103,-1,105,107,-1,-1,-1,-1,109,111,113,115,117,119,121,123,125,-1,127,-1,129,131,-1,-1,-1,133,135,137,139,141,143,145,-1,147,149,151,153,155,-1,157,159,161,-1,-1,-1,-1,-1,163,165,167,169,-1,171,-1,-1,173,175,177,-1,-1,-1,-1,-1,-1,-1,-1,-1,179,181,183,185,187,189,191,193,195,-1,197,199,201,-1,-1,-1,203,205,-1,207,209,211,-1,213,-1,-1,215,217,-1,-1,-1,-1,-1,219,221,223,225,-1,227,-1,-1,-1,-1,-1,229,-1,231,-1,233,235,-1,-1,237,-1,239,-1,-1,-1,241,-1,243,245,-1,247,-1,-1,-1,249,251,-1,-1,-1,-1,-1,253,-1,-1,-1,255,257,259,261,263,-1,-1,-1,-1,-1,265,-1,-1,-1,-1,-1,267,-1,-1,-1,-1,-1,269,-1,271,-1,273,275,277,-1,-1,279,281,-1,283,285,-1,287,289,291,-1,-1,-1,-1,293,295,297,299,301,303,305,307,-1,309,311,-1,313,-1,315,317,-1,319,-1,-1,-1,-1,321,323,325,327,-1,-1,329,331,-1,333,335,-1,337,339,341,343,-1,345,-1,-1,-1,-1,347,-1,-1,349,351,353,-1,-1,-1,355,357,-1,-1,359,361,363,-1,-1,365,367,-1,369,371,-1,-1,-1,-1,373,-1,375,-1,-1,-1,-1,-1,377,-1,379,381,-1,-1,-1,-1,-1,-1,383,385,-1,387,-1,389,391,-1,-1,393,395,-1,-1,-1,-1,-1,-1,-1,397,-1,-1,-1,-1,-1,-1,-1,-1,-1,-1,-1,-1,-1,-1,-1,-1,-1,-1,-1,-1,-1,-1,-1,-1,-1,-1,-1,-1,-1,-1,-1,-1,-1,-1,-1,-1,-1,-1],"loss_changes":[3.9558488E5,8.889693E4,1.359125E3,5.557039E4,1.4595031E4,0E0,8.13125E2,5.08745E3,4.1783477E3,4.0971094E3,6.3133896E3,3.96875E0,3.968167E1,5.8338086E2,6.105648E3,6.059337E2,2.9909492E3,1.0496203E4,1.8232031E3,4.7158813E1,1.2123276E3,0E0,1.4339806E1,7.081299E-1,0E0,1.555459E2,9.0859424E2,1.3357878E3,9.2902515E2,7.734253E0,0E0,4.7042188E2,0E0,1.8781289E3,4.9973423E3,4.9045312E2,7.3033003E3,1.5849487E1,0E0,1.1208105E3,0E0,0E0,0E0,0E0,0E0,1.1621094E0,1.0386362E2,1.318811E3,2.1200098E2,1.1384575E3,0E0,5.7730713E1,6.187744E-1,1.630249E0,0E0,3.5739062E2,1.8663364E2,4.416197E3,6.1183984E2,8.9795264E2,4.1932373E0,1.2724237E3,3.8617188E2,1.9612622E2,1.3293994E2,0E0,8.28783E1,3.1008469E1,0E0,0E0,0E0,0E0,8.381709E1,4.7388293E2,8.3299146E2,5.5598877E1,2.1827545E0,1.4055719E2,1.0432617E1,2.7325098E1,6.7819824E0,0E0,1.4816284E-1,0E0,2.7894077E0,1.8978125E2,0E0,0E0,0E0,2.5577578E3,1.133855E3,8.7240234E1,4.1451093E2,4.894627E2,1.719585E2,5.7165117E0,0E0,1.441687E1,3.2570358E2,1.17671875E2,5.548167E2,7.420561E0,0E0,1.2425781E1,1.6558714E2,1.5801615E1,0E0,0E0,0E0,0E0,0E0,4.0811768E0,5.502186E1,3.2745044E2,2.9252777E1,0E0,1.1781647E2,0E0,0E0,2.71492E0,7.3825836E0,2.9799805E0,0E0,0E0,0E0,0E0,0E0,0E0,0E0,0E0,0E0,6.666406E1,2.4357605E-1,9.082876E2,5.450606E2,7.9052734E-1,3.2458453E2,3.432339E2,1.1908203E1,1.567865E1,0E0,1.0556943E2,5.0054504E1,1.0853027E1,0E0,0E0,0E0,3.0326466E1,6.82959E0,0E0,1.2921906E2,6.2765625E1,8.5583325E2,0E0,8.432025E1,0E0,0E0,3.0206305E1,1.8486328E0,0E0,0E0,0E0,0E0,0E0,6.524957E1,9.75827E0,3.3849058E0,1.1876886E2,0E0,3.3805542E0,0E0,0E0,0E0,0E0,0E0,1.0768581E1,0E0,4.2529297E-1,0E0,1.1027734E2,7.007285E2,0E0,0E0,2.5724121E1,0E0,4.9845764E1,0E0,0E0,0E0,4.0114746E1,0E0,1.0946489E3,9.221924E0,0E0,4.949707E1,0E0,0E0,0E0,5.0042725E-1,2.4543E0,0E0,0E0,0E0,0E0,0E0,1.5761719E0,0E0,0E0,0E0,4.892168E2,1.790625E2,4.1421442E2,4.1849365E1,2.1243134E1,0E0,0E0,0E0,0E0,0E0,4.1505844E1,0E0,0E0,0E0,0E0,0E0,1.0530231E2,0E0,0E0,0E0,0E0,0E0,2.7526367E1,0E0,2.7148438E0,0E0,6.0366035E1,2.0983887E1,8.89502E0,0E0,0E0,7.2397675E1,1.0251892E1,0E0,3.0177612E0,1.4196777E2,0E0,2.5842285E0,2.1375146E2,1.8027344E0,0E0,0E0,0E0,0E0,5.8691406E-1,6.2556324E0,1.1821289E1,8.5904865E2,6.7453125E1,3.8807472E1,8.717865E0,4.481955E1,0E0,6.922119E0,1.714035E1,0E0,3.3324814E-1,0E0,6.1730057E1,3.2745056E0,0E0,8.9279884E1,0E0,0E0,0E0,0E0,9.287857E1,1.3945312E0,6.2286987E0,3.5822754E0,0E0,0E0,5.926509E-1,1.9232178E0,0E0,1.491272E0,8.717651E0,0E0,9.41053E0,9.5703125E-2,4.3820557E1,1.6774167E2,0E0,1.9519043E0,0E0,0E0,0E0,0E0,6.986328E0,0E0,0E0,4.5577066E2,1.859375E0,7.176951E1,0E0,0E0,0E0,6.219177E-1,3.970337E-1,0E0,0E0,4.928711E0,1.8786621E1,1.328186E0,0E0,0E0,1.0091858E0,8.556564E1,0E0,2.95195E1,5.619919E0,0E0,0E0,0E0,0E0,4.7182617E0,0E0,6.285408E0,0E0,0E0,0E0,0E0,0E0,1.4684753E0,0E0,2.2104607E0,1.5236851E1,0E0,0E0,0E0,0E0,0E0,0E0,1.0697876E2,5.7242638E1,0E0,2.4992676E0,0E0,1.06785904E2,3.4921875E0,0E0,0E0,4.6875E-2,2.7490978E0,0E0,0E0,0E0,0E0,0E0,0E0,0E0,2.8962585E1,0E0,0E0,0E0,0E0,0E0,0E0,0E0,0E0,0E0,0E0,0E0,0E0,0E0,0E0,0E0,0E0,0E0,0E0,0E0,0E0,0E0,0E0,0E0,0E0,0E0,0E0,0E0,0E0,0E0,0E0,0E0,0E0,0E0,0E0,0E0,0E0,0E0,0E0],"parents":[2147483647,0,0,1,1,2,2,3,3,4,4,6,6,7,7,8,8,9,9,10,10,11,11,12,12,13,13,14,14,15,15,16,16,17,17,18,18,19,19,20,20,22,22,23,23,25,25,26,26,27,27,28,28,29,29,31,31,33,33,34,34,35,35,36,36,37,37,39,39,45,45,46,46,47,47,48,48,49,49,51,51,52,52,53,53,55,55,56,56,57,57,58,58,59,59,60,60,61,61,62,62,63,63,64,64,66,66,67,67,72,72,73,73,74,74,75,75,76,76,77,77,78,78,79,79,80,80,82,82,84,84,85,85,89,89,90,90,91,91,92,92,93,93,94,94,95,95,97,97,98,98,99,99,100,100,101,101,103,103,104,104,105,105,111,111,112,112,113,113,114,114,116,116,119,119,120,120,121,121,131,131,132,132,133,133,134,134,135,135,136,136,137,137,138,138,139,139,141,141,142,142,143,143,147,147,148,148,150,150,151,151,152,152,154,154,157,157,158,158,164,164,165,165,166,166,167,167,169,169,175,175,177,177,179,179,180,180,183,183,185,185,189,189,191,191,192,192,194,194,198,198,199,199,205,205,209,209,210,210,211,211,212,212,213,213,219,219,225,225,231,231,233,233,235,235,236,236,237,237,240,240,241,241,243,243,244,244,246,246,247,247,248,248,253,253,254,254,255,255,256,256,257,257,258,258,259,259,260,260,262,262,263,263,265,265,267,267,268,268,270,270,275,275,276,276,277,277,278,278,281,281,282,282,284,284,285,285,287,287,288,288,289,289,290,290,292,292,297,297,300,300,301,301,302,302,306,306,307,307,310,310,311,311,312,312,315,315,316,316,318,318,319,319,324,324,326,326,332,332,334,334,335,335,342,342,343,343,345,345,347,347,348,348,351,351,352,352,360,360],"right_children":[2,4,6,8,10,-1,12,14,16,18,20,22,24,26,28,30,32,34,36,38,40,-1,42,44,-1,46,48,50,52,54,-1,56,-1,58,60,62,64,66,-1,68,-1,-1,-1,-1,-1,70,72,74,76,78,-1,80,82,84,-1,86,88,90,92,94,96,98,100,102,104,-1,106,108,-1,-1,-1,-1,110,112,114,116,118,120,122,124,126,-1,128,-1,130,132,-1,-1,-1,134,136,138,140,142,144,146,-1,148,150,152,154,156,-1,158,160,162,-1,-1,-1,-1,-1,164,166,168,170,-1,172,-1,-1,174,176,178,-1,-1,-1,-1,-1,-1,-1,-1,-1,180,182,184,186,188,190,192,194,196,-1,198,200,202,-1,-1,-1,204,206,-1,208,210,212,-1,214,-1,-1,216,218,-1,-1,-1,-1,-1,220,222,224,226,-1,228,-1,-1,-1,-1,-1,230,-1,232,-1,234,236,-1,-1,238,-1,240,-1,-1,-1,242,-1,244,246,-1,248,-1,-1,-1,250,252,-1,-1,-1,-1,-1,254,-1,-1,-1,256,258,260,262,264,-1,-1,-1,-1,-1,266,-1,-1,-1,-1,-1,268,-1,-1,-1,-1,-1,270,-1,272,-1,274,276,278,-1,-1,280,282,-1,284,286,-1,288,290,292,-1,-1,-1,-1,294,296,298,300,302,304,306,308,-1,310,312,-1,314,-1,316,318,-1,320,-1,-1,-1,-1,322,324,326,328,-1,-1,330,332,-1,334,336,-1,338,340,342,344,-1,346,-1,-1,-1,-1,348,-1,-1,350,352,354,-1,-1,-1,356,358,-1,-1,360,362,364,-1,-1,366,368,-1,370,372,-1,-1,-1,-1,374,-1,376,-1,-1,-1,-1,-1,378,-1,380,382,-1,-1,-1,-1,-1,-1,384,386,-1,388,-1,390,392,-1,-1,394,396,-1,-1,-1,-1,-1,-1,-1,398,-1,-1,-1,-1,-1,-1,-1,-1,-1,-1,-1,-1,-1,-1,-1,-1,-1,-1,-1,-1,-1,-1,-1,-1,-1,-1,-1,-1,-1,-1,-1,-1,-1,-1,-1,-1,-1,-1],"split_conditions":[1.4006622E0,-7.6210566E-2,7.033898E-1,2E-1,1E0,-1.24089E-1,7.711864E-1,4.9974993E-2,-6.1027706E-4,-5.366814E-1,-2.5917112E-3,7.457627E-1,8.7740965E0,-8.552632E-2,1.764706E-1,1E0,3.7469792E0,-1.2758872E-1,5.672727E0,1.1779661E0,7.457627E-1,1.8287595E-1,1.8715179E0,1.4511421E0,7.147875E-2,1E0,6.590992E-3,3.7469792E0,4.8235292E0,2.7305853E0,1.8261778E-1,8.3829385E-1,-1.2506156E-1,1E0,-2.2222223E-2,-1.972489E-2,2.59365E-1,1.1091694E-1,8.7533586E-2,4.5338982E-1,-1.24678716E-1,3.97443E-2,1.7796817E-1,-1.2308338E-1,-8.483168E-2,1.6043393E-1,-4.2688516E-3,-4.8822165E-4,1E0,7.5E-1,-1.248194E-1,-1.2803917E-1,6.0831778E-2,1.8518519E-2,-3.2868396E-2,2.8169014E-2,-1.0842457E-1,4.5474575E1,1E0,-6.9508517E-1,-8.255942E-2,5.138083E-2,1.2197503E0,2.5142002E-1,2.8305085E0,-1.24955684E-1,-3.4718127E-3,-2.4242425E-1,1.8265194E-1,-1.2521556E-1,-8.287972E-2,-1.2233448E-1,-3.7259187E-3,1E0,-5.753186E-4,1.8468945E4,-1.6211297E-2,2.947037E2,-1.9205814E-2,5.267811E-2,2.1470587E0,1.825058E-1,9.0361446E-1,-1.2413476E-1,-1.1746988E-1,1.8522611E4,-1.24093935E-1,1.7888077E-1,-1.2263484E-1,0E0,-1.9205814E-2,0E0,-2.4411082E-3,-4.8822165E-4,8.450704E-2,9.954051E-1,-1.2489529E-1,-3.318052E-2,8.3333336E-2,9.208867E-1,6.590992E-3,2.1619048E0,1.828619E-1,4.7331083E-1,-9.88945E-2,3.888889E-1,-1.247306E-1,4.2126328E-2,-1.24539115E-1,1.7670342E-1,-1.1731362E-1,-3.1734407E-3,-3.4718127E-3,-2.1084337E-1,8.336994E-3,-1.24366134E-1,1E0,9.322514E-2,1.693847E-1,2.0439115E0,1.1473209E-2,-8.496655E-2,9.7198494E-2,-7.279424E-2,1.4360987E-1,-1.2434724E-1,-3.9435536E-2,1.7858207E-1,1.3625164E-1,-4.2770483E-2,-1.1849188E-1,3.539607E-3,-1.2544952E-1,4.624074E1,1.6355932E0,-4.257427E-5,1.2407408E1,7.79661E-1,-2.1969974E-3,-2.4224133E-3,-1.2403733E-1,7.904911E-2,1.5434555E2,1.04737826E-1,-1.2011368E-1,-1.6884468E-2,-1.22060254E-1,-4.3025624E-2,1.0470589E1,-1.2936461E-1,1.104762E0,-5.4037027E-2,4.6370405E-1,1.8080874E-1,1E0,-1.2228471E-1,-1.4333302E-2,3.3935574E-1,-2.7139673E-2,-1.20572835E-1,1.767996E-1,-3.672095E-3,1.6081262E-1,-1.2502876E-1,-2.4411082E-3,1.2177966E1,3.3433735E-1,-6.5789476E-2,-1.2392999E-1,-5.6808436E-4,4.0389743E-2,1.4131911E-1,-1.2404596E-1,9.163116E-2,1.787664E-1,1.220339E0,-1.2535557E-1,9.4780105E-1,1.11397065E-1,-1.1746988E-1,2.718783E-1,-1.18433215E-1,-7.4248925E-2,1.2177966E1,-1.23511285E-1,-3.3038624E-2,1.7301951E-1,-8.11113E-2,-1.2523468E-1,7.971017E3,-1.22025125E-1,7.118644E-1,-5.969817E-4,-1.252497E-1,7.3233247E-4,4.77583E-2,1.8207061E-1,-1.1214887E-1,7.144586E0,-2.4242425E-1,6.222627E-2,1.8241797E-1,8.130993E-2,-1.2094243E-1,7.9091094E-2,1.3645833E1,-4.899007E-2,1.8186565E-1,-1.3015434E-1,-5.5490937E-2,1E0,5.090909E-1,1E0,5.1144576E0,1.725707E-1,7.511559E-2,-1.2419743E-1,-7.113672E-2,-1.2532382E-1,-2.7614994E-2,-1.2062994E-1,7.584209E-2,1.7828205E-1,-5.7281345E-2,1.6666291E-2,-2.45523E-3,1.7649804E-1,-6.3015625E-2,-1.22909546E-1,1.505746E-2,-1.2204904E-1,1.8522611E4,1.82938E-1,8.677966E0,-8.120826E-2,6.590992E-3,2.6899433E0,-2.8947368E-1,3.696281E-2,-1.2544379E-1,-1.1746988E-1,4.57586E-3,1.8071057E-1,-1.6273243E-2,1E0,-4.78432E-2,8.0932206E-1,4.8822165E-4,1.2691222E1,1.8211122E-1,1.2412495E-1,-7.991188E-2,-1.2572905E-1,-3.6050647E-2,3.7456855E-1,5.8E0,7.457627E-1,6.2256067E2,1.0469554E2,1.8012392E-3,1.2E0,6.530044E-2,6.5361446E-1,6E-1,-2.4178654E-3,3.085E2,1.5374419E-1,-3.6616623E-4,4.8822165E-4,1.814648E-1,2.7340412E-2,1.8281808E-1,1.1935899E-1,7.755853E-2,-1.2364347E-1,-3.809524E-2,8.1842464E-1,1E0,7.639204E0,1.9694167E-1,-1.212007E-1,-1.2955857E-3,6.9814816E0,-6.2354356E-2,4.5338982E-1,3.983051E-1,-1.1539466E-1,8.703704E-1,-7.603803E-2,8.154833E1,9.576271E-1,-1.23927005E-1,6.925848E1,-8.527943E-2,-1.2531061E-1,-1.24334686E-1,-2.642675E-2,-1.114489E-2,-3.7403658E-2,-1.2486914E-1,-8.478242E-3,4.032085E1,1E0,-4.943002E-2,1.7882755E-1,-1.9785255E-2,5.8747824E-2,1.7721583E0,-2.6213184E-2,-5.2624013E-2,1.2962963E-1,7.390932E-1,5E-1,-7.08559E-2,-3.8773227E-2,-2.4815474E-2,1.3426095E-3,1.8194689E-1,1.3426095E-3,1.597987E-1,-1.3076662E-1,-1.2329884E-1,1.8621156E-1,1.8169962E-1,5E-1,1.8218414E-1,5.811369E0,1.8241413E-1,1.0565693E-1,3.8184922E-2,7.294954E-3,5.889733E-2,-3.0397935E-2,-1.23660475E-1,1.4512388E-1,2.3190528E-3,1.814205E-1,-1.1693909E-1,-1.4123076E-2,-8.764478E-2,-1.2523931E-1,-1.2504032E-1,-1.5867203E-3,7.881356E-1,-1.2313038E-1,3.686017E1,-1.251721E-1,7.5E-1,-9.862445E-3,1.8045102E-1,-1.2379528E-1,1.2171366E0,9.044732E-1,-1.19617574E-1,1.7236035E-1,-1.2495157E-1,-7.922597E-2,1.8348691E-1,1.2656127E-1,-1.247425E-1,3.0123714E-1,-1.211276E-1,5.2024405E-2,-8.565165E-2,-1.24744974E-1,1.6057779E-1,1.20108604E-1,-2.5214847E-2,8.704982E-2,-6.577878E-3,1.6618797E-1,1.7355308E-1,8.6307645E-2,1.6252401E-1,1.8261024E-1,1.6013236E-1,9.040016E-2,1.1237153E-1,8.774904E-2,-4.9013607E-2,-1.17583364E-1,1.6117369E-1,2.1470385E-2,-1.5686715E-2,-1.1169411E-1,-8.153717E-2,1.6446762E-1,-1.1719239E-1,-9.545273E-2,-1.2375172E-1,1.5686336E-1,-1.2537305E-1,-1.1996343E-1,-1.2537046E-1,-1.2431326E-1,-4.2759504E-2,-1.1889542E-1,-5.478872E-2,-1.2353494E-1],"split_indices":[13,37,66,2,43,0,66,1,65,8,21,66,4,34,38,43,65,52,35,24,66,0,9,42,0,43,65,65,7,21,0,14,0,47,6,5,5,26,0,66,0,0,0,0,0,17,1,65,46,68,0,52,1,19,0,11,40,24,30,8,14,22,13,10,24,0,1,35,0,0,0,0,1,48,20,19,18,19,5,69,38,0,4,0,4,19,0,0,0,3,5,51,65,65,11,23,0,37,68,13,65,6,0,5,36,19,0,0,0,0,0,65,1,4,1,0,48,0,0,1,65,14,0,0,0,0,0,0,0,0,0,65,36,19,24,23,19,66,65,42,0,14,36,9,0,0,0,40,7,0,6,12,39,0,51,0,0,1,12,0,0,0,0,0,65,24,4,34,0,20,0,0,0,0,0,66,0,73,0,4,69,0,0,24,0,39,0,0,0,24,0,66,20,0,65,0,0,0,37,35,0,0,0,0,0,29,0,0,0,12,48,35,46,4,0,0,0,0,0,14,0,0,0,0,0,21,0,0,0,0,0,19,0,24,0,65,22,34,0,0,4,27,0,18,48,0,66,65,14,0,0,0,0,41,14,3,66,14,14,22,2,0,4,2,0,24,0,65,65,0,65,0,0,0,0,6,76,46,65,0,0,22,19,0,66,24,0,19,37,36,66,0,66,0,0,0,0,17,0,0,5,8,47,0,0,0,20,8,0,0,19,41,67,0,0,16,65,0,65,20,0,0,0,0,67,0,14,0,0,0,0,0,37,0,65,65,0,0,0,0,0,0,65,66,0,66,0,4,5,0,0,65,69,0,0,0,0,0,0,0,5,0,0,0,0,0,0,0,0,0,0,0,0,0,0,0,0,0,0,0,0,0,0,0,0,0,0,0,0,0,0,0,0,0,0,0,0,0,0],"split_type":[0,0,0,0,0,0,0,0,0,0,0,0,0,0,0,0,0,0,0,0,0,0,0,0,0,0,0,0,0,0,0,0,0,0,0,0,0,0,0,0,0,0,0,0,0,0,0,0,0,0,0,0,0,0,0,0,0,0,0,0,0,0,0,0,0,0,0,0,0,0,0,0,0,0,0,0,0,0,0,0,0,0,0,0,0,0,0,0,0,0,0,0,0,0,0,0,0,0,0,0,0,0,0,0,0,0,0,0,0,0,0,0,0,0,0,0,0,0,0,0,0,0,0,0,0,0,0,0,0,0,0,0,0,0,0,0,0,0,0,0,0,0,0,0,0,0,0,0,0,0,0,0,0,0,0,0,0,0,0,0,0,0,0,0,0,0,0,0,0,0,0,0,0,0,0,0,0,0,0,0,0,0,0,0,0,0,0,0,0,0,0,0,0,0,0,0,0,0,0,0,0,0,0,0,0,0,0,0,0,0,0,0,0,0,0,0,0,0,0,0,0,0,0,0,0,0,0,0,0,0,0,0,0,0,0,0,0,0,0,0,0,0,0,0,0,0,0,0,0,0,0,0,0,0,0,0,0,0,0,0,0,0,0,0,0,0,0,0,0,0,0,0,0,0,0,0,0,0,0,0,0,0,0,0,0,0,0,0,0,0,0,0,0,0,0,0,0,0,0,0,0,0,0,0,0,0,0,0,0,0,0,0,0,0,0,0,0,0,0,0,0,0,0,0,0,0,0,0,0,0,0,0,0,0,0,0,0,0,0,0,0,0,0,0,0,0,0,0,0,0,0,0,0,0,0,0,0,0,0,0,0,0,0,0,0,0,0,0,0,0,0,0,0,0,0,0,0,0,0,0,0,0,0,0,0,0,0,0,0,0,0,0,0,0,0,0,0,0,0],"sum_hessian":[2.5183883E5,1.7978873E5,7.20501E4,3.3823285E4,1.4596545E5,1.25920685E2,7.192419E4,1.4987934E4,1.883535E4,1.4233347E5,3.6319712E3,7.183271E4,9.1470695E1,1.1221378E4,3.7665557E3,5.567039E2,1.8278646E4,2.5295396E4,1.1703808E5,1.0335881E3,2.5983833E3,7.1798266E4,3.444523E1,8.098239E1,1.0488306E1,6.7781235E3,4.4432544E3,1.9702842E3,1.7962716E3,4.924998E2,6.4204155E1,1.7991576E4,2.8707004E2,2.2348809E4,2.9465886E3,1.1256877E5,4.4693047E3,1.0245575E3,9.030542E0,2.4693127E3,1.2907045E2,9.703433E0,2.4741795E1,6.681333E1,1.4169061E1,6.7055215E3,7.260203E1,2.0450927E3,2.3981616E3,1.8093024E3,1.6098181E2,1.6935446E3,1.02727066E2,4.8311765E2,9.382125E0,1.7904576E4,8.700029E1,5.614594E3,1.6734215E4,2.2068953E3,7.396935E2,1.00195984E3,1.1156681E5,8.9918225E2,3.5701226E3,9.1969666E2,1.04860916E2,1.19567116E2,2.3497456E3,6.693161E3,1.2360574E1,2.91739E1,4.3428123E1,1.1297964E3,9.152962E2,2.3726746E3,2.548695E1,1.5867847E2,1.6506239E3,1.8963415E1,1.674581E3,4.8474846E1,5.4252224E1,4.6273297E2,2.0384672E1,1.7871338E4,3.323824E1,2.4246273E1,6.275402E1,1.7214204E3,3.8931738E3,1.6560475E4,1.7373926E2,2.756334E2,1.9312618E3,1.8333035E1,7.213605E2,7.4483813E2,2.5712167E2,1.1123763E5,3.2917603E2,2.433673E1,8.748455E2,3.5052295E3,6.4892944E1,1.957597E1,8.528495E1,1.0270629E1,1.09296486E2,3.2697678E1,1.0730446E1,1.0488842E3,8.091231E1,7.013772E2,2.1391902E2,2.3085134E3,6.416118E1,9.1158085E0,1.6371143E1,2.0030231E1,1.3864824E2,1.6338273E3,1.6796652E1,9.290159E0,9.673257E0,1.6652301E3,9.351031E0,1.424672E1,4.0005505E1,9.137384E0,1.1247288E1,1.7850826E4,2.0511003E1,1.1349277E3,5.864926E2,3.5528982E3,3.402756E2,2.4187217E3,1.4141753E4,1.06769165E2,6.697009E1,1.1348133E2,1.6215205E2,1.9151571E3,1.6104654E1,9.039401E0,9.293634E0,2.7610647E1,7.1722754E2,3.805717E1,2.1906451E2,1.0887551E5,2.3621277E3,8.572183E1,2.4345421E2,1.5214358E1,9.122371E0,2.9106256E1,3.4761233E3,3.6474773E1,2.8418167E1,9.210321E0,1.0365647E1,5.436621E2,5.0522205E2,6.0610966E1,2.0301344E1,6.48469E2,5.290817E1,2.038628E2,1.0056221E1,2.1224878E1,4.2936302E1,9.046035E0,1.0984197E1,1.8909893E1,1.1973834E2,1.6233115E3,1.0515755E1,1.6001889E4,1.8489373E3,1.0548515E1,9.962487E0,1.039772E3,9.515586E1,5.2479895E2,6.169368E1,9.668848E0,3.5432295E3,2.6831375E2,7.196188E1,6.5546045E2,1.7632612E3,5.3008965E3,8.840856E3,9.058716E0,9.771045E1,1.1735306E1,1.01746025E2,1.4835036E2,1.3801709E1,1.9039222E3,1.1234889E1,1.8063189E1,9.54746E0,7.0473535E2,1.2492185E1,2.0732622E2,1.1738288E1,7.686145E3,1.0118936E5,2.1498578E2,2.1471418E3,2.3420421E2,9.249997E0,9.137079E0,1.9969177E1,9.322822E0,3.4668005E3,3.4514256E1,4.707078E2,1.1941117E1,4.8669846E1,9.163537E0,1.1137807E1,4.4883084E2,1.9963815E2,1.1644079E1,1.9221872E2,9.002239E0,9.907654E0,6.0757764E2,1.0157338E3,1.5988484E4,1.3404945E1,9.0450424E1,1.7584868E3,1.0279259E3,1.1845974E1,5.0055676E2,2.4242212E1,2.2307631E2,4.5237427E1,4.6721686E2,1.882436E2,1.5410396E1,1.7478508E3,1.8423304E3,6.9985264E3,9.264433E1,9.101691E0,1.7617031E1,1.3073332E2,6.7749133E2,2.7244019E1,7.097429E3,5.887161E2,1.0116075E5,2.8614307E1,7.236449E1,1.4262129E2,9.993001E0,2.137149E3,2.1784279E2,1.6361425E1,2.323628E1,1.1277975E1,3.2044952E2,1.2838135E2,5.367077E2,7.0869934E1,1.59766E4,1.1884082E1,1.5135017E1,7.531541E1,4.328936E1,1.7151974E3,8.6126625E1,9.417993E2,9.958515E0,1.4283698E1,2.7155432E1,1.9592088E2,1.0364773E1,4.5685208E2,1.7213069E2,1.6112917E1,5.6288414E1,1.6915624E3,1.7442804E3,9.805006E1,5.6336562E3,1.3648701E3,1.09032545E1,6.665881E2,1.8081991E1,9.162026E0,7.0823604E3,1.5068859E1,3.5793643E2,2.307797E2,1.01132734E5,2.8013163E1,9.127027E0,1.948728E1,9.288401E0,6.3076088E1,1.3302919E2,9.592095E0,1.4381867E1,2.122767E3,2.0517979E1,1.973248E2,1.3305286E1,9.930994E0,8.2722855E1,2.3772665E2,5.661879E1,